%YAML:1.0
---
opencv_ml_svm:
   format: 3
   svmType: C_SVC
   kernel:
      type: RBF
      gamma: 5.0625000000000009e-01
   C: 2.5000000000000000e+00
   term_criteria: { epsilon:1.1920928955078125e-07, iterations:1000 }
   var_count: 81
   class_count: 10
   class_labels: !!opencv-matrix
      rows: 10
      cols: 1
      dt: i
      data: [ 0, 1, 2, 3, 4, 5, 6, 7, 8, 9 ]
   sv_total: 1072
   support_vectors:
      - [ 3.92671734e-01, 3.68331194e-01, 3.21566969e-01, 3.16050321e-01,
          3.92671734e-01, 3.92671734e-01, 1.00236475e-01, 1.74081534e-01,
          3.92671734e-01, 2.73370862e-01, 0., 0., 3.63409042e-01,
          4.45808500e-01, 3.70542645e-01, 2.34971270e-01, 4.45808500e-01,
          4.45808500e-01, 3.94671969e-02, 0., 0., 4.02143806e-01,
          3.58220220e-01, 4.71167490e-02, 5.36530197e-01, 5.36530197e-01,
          3.53685915e-01, 0., 1.37876555e-01, 2.25633234e-01,
          5.53132236e-01, 5.53132236e-01, 5.53132236e-01, 7.00716525e-02,
          4.21940684e-02, 0., 0., 0., 0., 4.91997391e-01, 4.91997391e-01,
          4.91997391e-01, 2.13880241e-01, 4.72331345e-01, 7.76369125e-03,
          0., 0., 0., 4.98633534e-01, 4.98633534e-01, 2.09954921e-02,
          4.98633534e-01, 4.98633534e-01, 6.11502863e-03, 0., 0., 0., 0.,
          0., 0., 0., 0., 0., 0., 0., 0., 0., 0., 0., 0., 0., 0., 0., 0.,
          0., 0., 0., 0., 0., 0., 0. ]
      - [ 6.99765503e-01, 0., 0., 0., 0., 0., 0., 0., 6.99765503e-01, 0.,
          0., 0., 0., 0., 0., 0., 0., 0., 0., 0., 0., 0., 0., 0., 0., 0.,
          0., 3.85045201e-01, 3.85045201e-01, 3.32738638e-01,
          1.97509855e-01, 2.46077761e-01, 2.11127669e-01, 3.85045201e-01,
          3.85045201e-01, 3.85045201e-01, 0., 0., 0., 0., 0., 0.,
          9.44060504e-01, 3.14686805e-01, 0., 0., 0., 0., 0., 0., 0., 0.,
          0., 0., 5.88557534e-02, 2.09033906e-01, 3.50040376e-01,
          4.46546674e-01, 4.53997046e-01, 2.60134727e-01, 4.53997046e-01,
          3.69947523e-01, 9.80621502e-02, 0., 0., 0., 0., 0., 0.,
          9.39684272e-01, 3.13228101e-01, 0., 0., 0., 0., 0., 0., 0., 0.,
          0., 0. ]
      - [ 5.31275749e-01, 2.99252182e-01, 1.03213243e-01, 0., 0., 0.,
          2.18466207e-01, 5.31275749e-01, 5.31275749e-01, 3.41561675e-01,
          0., 0., 0., 0., 0., 5.47835767e-01, 5.96334815e-01,
          4.70788598e-01, 0., 0., 0., 0., 0., 0., 0., 0., 0.,
          4.08159643e-01, 4.08159643e-01, 4.08159643e-01, 2.60255396e-01,
          2.57694125e-01, 8.46963525e-02, 4.08159643e-01, 4.08159643e-01,
          1.47100180e-01, 8.67322609e-02, 0., 0., 0., 4.87861596e-02,
          1.02456830e-01, 6.90470397e-01, 6.90470397e-01, 1.38594508e-01,
          0., 0., 0., 0., 0., 0., 0., 0., 0., 4.41419855e-02,
          9.83947217e-02, 4.39980596e-01, 4.39980596e-01, 4.39980596e-01,
          4.17978019e-01, 4.39980596e-01, 1.86916262e-01, 0., 0., 0., 0.,
          0., 5.37117779e-01, 4.56216425e-01, 6.11829102e-01,
          3.50609958e-01, 0., 0., 0., 0., 0., 0., 0., 0., 0., 0. ]
      - [ 1.43215835e-01, 3.17389697e-01, 3.60467404e-01, 3.59047979e-01,
          3.97821486e-01, 3.97821486e-01, 3.23751897e-01, 3.97821486e-01,
          1.90592080e-01, 3.09496410e-02, 0., 0., 0., 4.91178960e-01,
          4.91178960e-01, 4.91178960e-01, 4.91178960e-01, 1.70614585e-01,
          0., 0., 0., 0., 0., 0., 0., 0., 0., 0., 0., 0., 2.48039603e-01,
          9.41390455e-01, 0., 1.96422487e-01, 6.54741675e-02, 0., 0., 0.,
          0., 0., 8.93151104e-01, 0., 2.75894821e-01, 9.19649377e-02, 0.,
          0., 0., 0., 0., 0., 0., 0., 0., 0., 0., 0., 0., 0., 0., 0., 0.,
          0., 0., 0., 0., 0., 0., 0., 0., 0., 0., 0., 0., 0., 0., 0., 0.,
          0., 0., 0., 0. ]
      - [ 0., 0., 0., 0., 0., 0., 0., 0., 0., 0., 0., 0., 0., 0., 0., 0.,
          0., 0., 0., 0., 0., 0., 0., 0., 0., 0., 0., 4.77974176e-01,
          1.11589409e-01, 3.34768206e-01, 0., 0., 0., 4.30495113e-01,
          4.77974176e-01, 4.77974176e-01, 0., 0., 0., 0., 0., 0.,
          8.61644685e-01, 2.87214905e-01, 0., 0., 0., 0., 0., 0., 0., 0.,
          0., 0., 2.26931840e-01, 2.01553732e-01, 3.93719882e-01, 0.,
          3.93719882e-01, 3.93719882e-01, 3.93719882e-01, 3.93719882e-01,
          3.58982116e-01, 0., 0., 0., 0., 0., 0., 9.31506217e-01,
          3.10502082e-01, 0., 0., 0., 0., 0., 0., 0., 0., 0., 0. ]
      - [ 5.08341014e-01, 5.08341014e-01, 4.34414804e-01, 0.,
          1.30997032e-01, 1.94891497e-01, 1.83105081e-01, 5.17747402e-02,
          4.45010930e-01, 5.02389967e-01, 2.95085698e-01, 9.53471586e-02,
          0., 8.36769417e-02, 3.62308413e-01, 5.02389967e-01,
          2.14337885e-01, 4.58055109e-01, 0., 0., 0., 0., 0., 0., 0., 0.,
          0., 3.75314087e-01, 3.75314087e-01, 3.75314087e-01,
          2.90628850e-01, 2.50815839e-01, 6.09321482e-02, 3.75314087e-01,
          3.75314087e-01, 3.75314087e-01, 4.09428746e-01, 1.34628966e-01,
          1.48635671e-01, 1.02384919e-02, 4.09428746e-01, 3.42677832e-01,
          4.09428746e-01, 4.09428746e-01, 4.09428746e-01, 0., 0., 0., 0.,
          0., 0., 8.61644685e-01, 2.87214905e-01, 0., 1.69979781e-01,
          1.44680858e-01, 3.56860667e-01, 4.31565374e-01, 4.31565374e-01,
          9.06607136e-02, 2.55538166e-01, 4.31565374e-01, 4.31565374e-01,
          2.56880224e-01, 0., 1.62489228e-02, 1.13991112e-01,
          4.73167419e-01, 1.43103719e-01, 4.73167419e-01, 4.73167419e-01,
          4.73167419e-01, 0., 0., 0., 0., 0., 0., 9.39875305e-01,
          3.13291758e-01, 0. ]
      - [ 4.78148907e-01, 4.78148907e-01, 3.18884790e-01, 0.,
          2.28848159e-02, 4.78148907e-01, 4.38289464e-01, 3.58161777e-02,
          1.17275104e-01, 4.85653222e-01, 3.54357392e-01, 2.82639097e-02,
          0., 1.82758540e-01, 4.85653222e-01, 4.85653222e-01,
          1.27429694e-01, 3.34013909e-01, 1.08502582e-01, 0., 0., 0., 0.,
          4.13419068e-01, 8.51620555e-01, 2.64229864e-01, 1.08502582e-01,
          2.42746666e-01, 3.94909769e-01, 3.94909769e-01, 3.25976789e-01,
          2.07864165e-01, 3.94909769e-01, 3.94909769e-01, 3.66157651e-01,
          1.72551870e-01, 2.44881019e-01, 1.51243865e-01, 1.17023913e-02,
          1.61111094e-02, 1.91931620e-01, 4.80134934e-01, 4.80134934e-01,
          4.80134934e-01, 4.28415805e-01, 6.64144933e-01, 0., 0., 0., 0.,
          2.33456478e-01, 3.32781002e-02, 0., 6.64144933e-01,
          5.23757190e-02, 5.18319122e-02, 4.35177803e-01, 4.35177803e-01,
          4.35177803e-01, 1.74685702e-01, 1.13178380e-01, 4.35177803e-01,
          4.35177803e-01, 2.96000540e-01, 0., 4.02949043e-02,
          3.94217014e-01, 3.94217014e-01, 3.94217014e-01, 3.60258758e-01,
          3.94217014e-01, 3.94217014e-01, 2.94893473e-01, 0., 0., 0.,
          3.73763233e-01, 1.90544158e-01, 7.25326598e-01, 3.41658950e-01,
          2.94893473e-01 ]
      - [ 3.39292258e-01, 3.26288044e-01, 3.59357446e-01, 3.59357446e-01,
          3.59357446e-01, 0., 3.59357446e-01, 3.59357446e-01,
          3.59357446e-01, 3.14115584e-01, 0., 0., 0., 4.75172192e-01, 0.,
          4.75172192e-01, 4.75172192e-01, 4.68208909e-01, 0., 0., 0., 0.,
          0., 0., 9.31506217e-01, 3.10502082e-01, 0., 2.96065748e-01,
          2.32661903e-01, 3.79876941e-01, 3.67725313e-01, 3.79876941e-01,
          0., 3.79876941e-01, 3.76789719e-01, 3.79876941e-01,
          1.66522890e-01, 1.62991229e-02, 6.51227981e-02, 1.13826305e-01,
          5.25569856e-01, 0., 5.25569856e-01, 5.25569856e-01,
          3.47688496e-01, 0., 0., 0., 0., 0., 0., 0., 0., 0.,
          9.05185863e-02, 1.31523982e-01, 5.03663480e-01, 5.06399512e-01,
          5.06399512e-01, 0., 2.42905989e-01, 3.05233508e-01,
          2.25214705e-01, 3.33550945e-02, 1.38753001e-02, 8.18249285e-02,
          2.82008380e-01, 5.82989335e-01, 0., 5.82989335e-01,
          4.41906482e-01, 1.77806154e-01, 0., 0., 0., 0., 0., 0., 0., 0.,
          0. ]
      - [ 0., 0., 0., 0., 0., 0., 0., 0., 0., 0., 0., 0., 0., 0., 0., 0.,
          0., 0., 0., 0., 0., 0., 0., 0., 0., 0., 0., 0., 0., 0., 0., 0.,
          0., 0., 0., 0., 0., 0., 0., 0., 0., 0., 0., 0., 0., 0., 0., 0.,
          0., 0., 0., 0., 0., 0., 4.50109959e-01, 3.75417650e-01,
          3.45603436e-01, 0., 0., 5.40589541e-02, 4.50109959e-01,
          3.52710068e-01, 4.50109959e-01, 0., 0., 0., 0., 0., 0.,
          9.43809986e-01, 3.14603299e-01, 0., 0., 0., 0., 0., 0., 0., 0.,
          0., 0. ]
      - [ 0., 9.95265245e-02, 2.98579544e-01, 0., 6.89492106e-01,
          4.69715208e-01, 4.28386837e-01, 1.20477065e-01, 0., 0., 0., 0.,
          0., 0., 0., 7.86327660e-01, 2.62109220e-01, 0., 0., 0., 0., 0.,
          0., 0., 0., 0., 0., 0., 0., 0., 0., 0., 0., 0., 0., 0., 0., 0.,
          0., 0., 0., 0., 0., 0., 0., 0., 0., 0., 0., 0., 0., 0., 0., 0.,
          0., 0., 0., 0., 0., 0., 0., 0., 0., 0., 0., 0., 0., 0., 0., 0.,
          0., 0., 0., 0., 0., 0., 0., 0., 0., 0., 0. ]
      - [ 0., 0., 0., 0., 0., 0., 0., 0., 0., 0., 0., 0., 0., 0., 0., 0.,
          0., 0., 0., 0., 0., 0., 0., 0., 0., 0., 0., 4.40076351e-01,
          4.40076351e-01, 1.65130496e-01, 0., 0., 0., 4.40076351e-01,
          4.40076351e-01, 4.40076351e-01, 4.09874648e-01, 3.24413702e-02,
          0., 0., 0., 0., 5.66063344e-01, 5.66063344e-01, 4.29467708e-01,
          0., 0., 0., 0., 0., 0., 0., 0., 0., 3.58520329e-01,
          3.58520329e-01, 3.58520329e-01, 3.58520329e-01, 3.58520329e-01,
          2.73761690e-01, 3.58520329e-01, 3.58520329e-01, 1.47359565e-01,
          3.21172550e-02, 2.56602932e-03, 1.07089458e-02, 1.05605185e-01,
          2.57743359e-01, 3.59715641e-01, 6.10562027e-01, 6.10562027e-01,
          2.00497895e-01, 0., 0., 0., 0., 0., 0., 0., 0., 0. ]
      - [ 5.73271632e-01, 4.29969877e-01, 1.74858589e-02, 0., 0.,
          3.21343057e-02, 3.18716049e-01, 2.21816450e-01, 5.73271632e-01,
          4.89602059e-01, 3.23396847e-02, 0., 0., 0., 1.87679380e-01,
          4.89602059e-01, 4.89602059e-01, 4.89602059e-01, 0., 0., 0., 0.,
          0., 0., 9.31210756e-01, 3.10403556e-01, 0., 3.95841897e-01,
          3.95841897e-01, 3.95841897e-01, 2.12509602e-01, 0.,
          2.92591810e-01, 3.95841897e-01, 3.95841897e-01, 2.86044210e-01,
          2.49644533e-01, 1.77407153e-02, 0., 0., 0., 5.34250379e-01,
          5.34250379e-01, 5.34250379e-01, 2.75240421e-01, 0., 0., 0., 0.,
          0., 0., 9.33219910e-01, 3.11073303e-01, 0., 1.74770765e-02,
          1.03239737e-01, 4.16470110e-01, 4.16470110e-01, 4.16470110e-01,
          3.42672825e-01, 4.16470110e-01, 4.16470110e-01, 1.46371284e-02,
          0., 0., 0., 6.53355494e-02, 4.96996731e-01, 4.96996731e-01,
          4.96996731e-01, 4.96996731e-01, 5.23873046e-02, 0., 0., 0., 0.,
          0., 0., 9.32734251e-01, 3.10911417e-01, 0. ]
      - [ 4.61174726e-01, 4.61174726e-01, 1.63016036e-01, 0., 0.,
          1.26772448e-01, 4.61174726e-01, 3.19405079e-01, 4.61174726e-01,
          4.79764789e-01, 6.32836530e-03, 0., 0., 0., 2.72893786e-01,
          4.79764789e-01, 4.79764789e-01, 4.79764789e-01, 0., 0., 0., 0.,
          0., 0., 9.42189455e-01, 3.14063162e-01, 0., 3.78952593e-01,
          3.36869419e-01, 3.78952593e-01, 3.78952593e-01, 1.03861392e-01,
          3.78952593e-01, 3.78952593e-01, 3.78952593e-01, 1.01565093e-01,
          9.61326286e-02, 1.13171502e-03, 0., 6.34066835e-02,
          8.63561258e-02, 5.67926228e-01, 5.67926228e-01, 5.67926228e-01,
          7.73800984e-02, 0., 0., 0., 0., 0., 0., 9.37433898e-01,
          3.12477976e-01, 0., 8.66475166e-04, 1.21072279e-02,
          2.78697401e-01, 4.54920620e-01, 4.54920620e-01, 3.56946260e-01,
          4.11542058e-01, 4.54920620e-01, 8.66475166e-04, 6.05374249e-03,
          0., 0., 4.31280375e-01, 4.49841797e-01, 4.49841797e-01,
          4.49841797e-01, 4.49841797e-01, 6.05374249e-03, 0., 0., 0., 0.,
          0., 0., 9.39875305e-01, 3.13291758e-01, 0. ]
      - [ 6.37373805e-01, 7.30862021e-02, 2.19258606e-01, 0., 0., 0.,
          3.37470233e-01, 1.12490088e-01, 6.37373805e-01, 0., 0., 0., 0.,
          0., 0., 8.61644685e-01, 2.87214905e-01, 0., 7.00271189e-01, 0.,
          0., 0., 0., 0., 0., 0., 7.00271189e-01, 3.62594098e-01,
          3.62594098e-01, 3.20814043e-01, 1.44750223e-01, 2.89233774e-01,
          3.62594098e-01, 3.62594098e-01, 3.62594098e-01, 3.62594098e-01,
          4.84975487e-01, 4.98702139e-01, 4.68634993e-01, 0.,
          1.97862536e-01, 2.84029901e-01, 3.64187211e-01, 1.91154838e-01,
          5.00038043e-02, 4.48721975e-01, 4.48721975e-01, 1.02360435e-01,
          0., 1.25777259e-01, 4.48721975e-01, 4.48721975e-01,
          1.47749171e-01, 3.76808614e-01, 5.82505725e-02, 3.25307697e-01,
          2.15149984e-01, 2.84931511e-01, 5.14392495e-01, 5.14392495e-01,
          4.34262514e-01, 1.87744439e-01, 7.16791600e-02, 1.80280596e-01,
          5.14782906e-01, 5.27819633e-01, 0., 5.27819633e-01,
          3.52342665e-01, 1.21915080e-01, 3.17524076e-02, 4.71818633e-03,
          2.79730558e-01, 4.91611868e-01, 2.26014733e-01, 0.,
          5.05894303e-01, 5.05894303e-01, 3.30791920e-01, 4.20621783e-02,
          2.97121033e-02 ]
      - [ 5.80083966e-01, 5.80083966e-01, 7.62753794e-03, 0., 0.,
          9.62840468e-02, 4.74957019e-01, 1.77034080e-01, 2.34432697e-01,
          4.92101163e-01, 9.00584385e-02, 0., 0., 0., 2.93202966e-01,
          4.92101163e-01, 4.17751074e-01, 4.92101163e-01, 0., 0., 0., 0.,
          0., 0., 9.36965704e-01, 3.12321901e-01, 0., 4.32287365e-01,
          4.32287365e-01, 2.94550359e-01, 5.67007437e-02, 2.82455496e-02,
          4.31336582e-01, 4.32287365e-01, 3.95534426e-01, 4.23470065e-02,
          5.18632412e-01, 4.86616530e-02, 0., 0., 0., 5.35326660e-01,
          5.35326660e-01, 3.78144264e-01, 8.46417099e-02, 1.67176545e-01,
          0., 0., 0., 0., 0., 8.95004451e-01, 2.98334807e-01,
          1.67176545e-01, 6.95690662e-02, 2.34697759e-01, 4.26900864e-01,
          4.26900864e-01, 4.26900864e-01, 9.63786915e-02, 4.26900864e-01,
          4.26900864e-01, 1.23701476e-01, 2.01594412e-01, 0., 0.,
          2.24580988e-01, 4.46046174e-01, 3.20433378e-01, 4.48259890e-01,
          4.48259890e-01, 4.48259890e-01, 2.22345084e-01, 0., 0., 0., 0.,
          2.91494638e-01, 8.61324310e-01, 2.56284684e-01, 2.22345084e-01 ]
      - [ 2.68612415e-01, 3.89406770e-01, 3.89406770e-01, 1.01812907e-01,
          6.13632314e-02, 3.89406770e-01, 3.89406770e-01, 3.89406770e-01,
          3.89406770e-01, 4.94735502e-02, 0., 0., 0., 1.47457927e-01,
          4.96148497e-01, 4.96148497e-01, 4.96148497e-01, 4.82040703e-01,
          0., 0., 0., 0., 0., 0., 9.39460695e-01, 3.13153565e-01, 0., 0.,
          7.39005283e-02, 4.20817941e-01, 4.20817941e-01, 4.20817941e-01,
          3.23876590e-01, 4.20817941e-01, 4.20817941e-01, 0., 0., 0.,
          4.22202051e-04, 7.02362880e-02, 3.51625890e-01, 5.37295759e-01,
          5.37295759e-01, 5.37295759e-01, 0., 0., 0., 0., 0., 0., 0.,
          8.94191086e-01, 2.98063695e-01, 0., 0., 2.26688124e-02,
          3.70365411e-01, 4.61546481e-01, 4.61546481e-01, 7.48663694e-02,
          4.61546481e-01, 4.61546481e-01, 0., 0., 0., 7.59031437e-03,
          4.16361034e-01, 5.01124680e-01, 2.61157095e-01, 5.01124680e-01,
          5.01124680e-01, 0., 0., 0., 0., 0., 0., 0., 0., 0., 0. ]
      - [ 0., 2.35271513e-01, 5.29102623e-01, 1.89806432e-01,
          5.29102623e-01, 0., 5.29102623e-01, 2.51968235e-01, 0., 0., 0.,
          0., 0., 5.20428598e-01, 0., 8.04296017e-01, 2.68098652e-01, 0.,
          0., 0., 0., 0., 0., 0., 0., 0., 0., 0., 0., 0., 0., 0., 0., 0.,
          0., 0., 0., 0., 0., 0., 0., 0., 0., 0., 0., 0., 0., 0., 0., 0.,
          0., 0., 0., 0., 0., 0., 0., 0., 0., 0., 0., 0., 0., 0., 0., 0.,
          0., 0., 0., 0., 0., 0., 0., 0., 0., 0., 0., 0., 0., 0., 0. ]
      - [ 0., 0., 0., 0., 0., 0., 0., 0., 0., 0., 0., 0., 0., 0., 0., 0.,
          0., 0., 0., 0., 0., 0., 0., 0., 0., 0., 0., 5.26186466e-01,
          2.91525930e-01, 1.98031351e-01, 0., 0., 0., 5.26186466e-01,
          1.99811816e-01, 5.26186466e-01, 0., 0., 0., 0., 0., 0.,
          9.25021529e-01, 3.08340490e-01, 0., 0., 0., 0., 0., 0., 0., 0.,
          0., 0., 4.34362322e-01, 4.34362322e-01, 4.34362322e-01,
          3.58696654e-02, 0., 6.81134015e-02, 4.34362322e-01,
          4.34362322e-01, 2.15364486e-01, 0., 0., 0., 0., 0., 0.,
          7.04615593e-01, 7.04615593e-01, 0., 0., 0., 0., 0., 0., 0., 0.,
          0., 0. ]
      - [ 7.03030467e-01, 0., 0., 0., 0., 0., 0., 0., 7.03030467e-01,
          6.84107184e-01, 0., 0., 0., 0., 0., 0., 0., 6.84107184e-01, 0.,
          0., 0., 0., 0., 0., 0., 0., 0., 4.57968920e-01, 4.57968920e-01,
          1.95993751e-01, 9.63309333e-02, 0., 1.55195877e-01,
          4.57968920e-01, 4.28013533e-01, 3.33533525e-01, 4.04766053e-01,
          4.30563986e-02, 0., 0., 0., 3.07534784e-01, 7.13449657e-01,
          4.34931576e-01, 1.85567454e-01, 0., 0., 0., 0., 0., 0., 0., 0.,
          0., 2.26084769e-01, 3.37863624e-01, 3.83764952e-01,
          4.06600296e-01, 4.06600296e-01, 1.29036903e-01, 4.06600296e-01,
          4.06600296e-01, 7.38285929e-02, 1.15679260e-02, 2.27224594e-03,
          0., 6.72572330e-02, 1.24192983e-01, 2.91155130e-01,
          6.66516423e-01, 6.66516423e-01, 0., 0., 0., 0., 0., 0., 0., 0.,
          0., 0. ]
      - [ 7.02009141e-01, 0., 0., 0., 0., 0., 0., 0., 7.02009141e-01,
          6.95800066e-01, 0., 0., 0., 0., 0., 0., 0., 6.95800066e-01, 0.,
          0., 0., 0., 0., 0., 0., 0., 0., 4.38941568e-01, 4.38941568e-01,
          4.38941568e-01, 0., 0., 2.58162171e-01, 4.38941568e-01,
          1.01810835e-01, 3.84608209e-01, 5.47804475e-01, 1.68435469e-01,
          5.40777631e-02, 0., 0., 3.90083700e-01, 5.47804475e-01,
          3.23645949e-01, 3.25796396e-01, 0., 0., 0., 0., 0., 0., 0., 0.,
          0., 4.15845126e-01, 4.15845126e-01, 4.15845126e-01,
          1.19834043e-01, 2.13634670e-01, 4.15845126e-01, 4.15845126e-01,
          2.17768610e-01, 1.54230475e-01, 2.55163640e-01, 2.21401304e-02,
          2.27720384e-02, 0., 0., 4.52824384e-01, 5.84241390e-01,
          5.84241390e-01, 2.00805619e-01, 0., 0., 0., 0., 0., 0., 0., 0.,
          0. ]
      - [ 0., 0., 0., 0., 0., 0., 0., 0., 0., 0., 0., 0., 0., 0., 0., 0.,
          0., 0., 0., 0., 0., 0., 0., 0., 0., 0., 0., 6.99765503e-01, 0.,
          0., 0., 0., 0., 0., 0., 6.99765503e-01, 0., 0., 0., 0., 0., 0.,
          0., 0., 0., 0., 0., 0., 0., 0., 0., 0., 0., 0., 4.32301760e-01,
          4.05893415e-01, 3.98534000e-01, 9.64370295e-02, 0., 0.,
          4.32301760e-01, 4.32301760e-01, 3.19606394e-01, 0., 0., 0., 0.,
          0., 0., 9.42496419e-01, 3.14165473e-01, 0., 0., 0., 0., 0., 0.,
          0., 0., 0., 0. ]
      - [ 3.99420440e-01, 3.91787142e-01, 3.99420440e-01, 3.46902639e-01,
          2.05119103e-01, 4.82415296e-02, 3.99420440e-01, 3.99420440e-01,
          1.99056000e-01, 1.88970305e-02, 0., 0., 0., 0., 3.98930907e-02,
          7.37705052e-01, 6.62540376e-01, 8.67161080e-02, 0., 0., 0., 0.,
          0., 0., 0., 0., 0., 2.60118693e-02, 1.14949182e-01,
          3.69403929e-01, 4.99550968e-01, 4.99550968e-01, 9.65885296e-02,
          4.99550968e-01, 2.94412374e-01, 0., 0., 0., 0., 0.,
          2.17136264e-01, 3.75699662e-02, 8.84463429e-01, 4.00424361e-01,
          0., 0., 0., 0., 0., 0., 0., 0., 0., 0., 0., 0., 0., 0.,
          9.86458302e-01, 0., 0., 0., 0., 0., 0., 0., 0., 8.59519482e-01,
          0., 0., 0., 0., 0., 0., 0., 0., 0., 0., 0., 0., 0. ]
      - [ 4.18185711e-01, 1.47008583e-01, 4.18185711e-01, 1.25430375e-01,
          2.47351006e-01, 1.51324674e-01, 4.18185711e-01, 4.18185711e-01,
          4.18185711e-01, 0., 0., 0., 0., 0., 0., 9.39017236e-01,
          3.13005775e-01, 0., 0., 0., 0., 0., 0., 0., 0., 0., 0.,
          2.25436658e-01, 1.30897075e-01, 3.92691225e-01, 3.17279637e-01,
          4.34740871e-01, 3.82779986e-01, 4.34740871e-01, 3.74993235e-01,
          8.76884386e-02, 0., 0., 0., 0., 0., 0., 9.35446143e-01,
          3.11815411e-01, 0., 0., 0., 0., 0., 0., 0., 0., 0., 0., 0., 0.,
          0., 0., 0., 0., 0., 0., 0., 0., 0., 0., 0., 0., 0., 0., 0., 0.,
          0., 0., 0., 0., 0., 0., 0., 0., 0. ]
      - [ 5.40417194e-01, 7.72445947e-02, 2.31733784e-01, 0., 0., 0.,
          5.56672871e-01, 1.85557619e-01, 5.40417194e-01, 0., 0., 0., 0.,
          0., 0., 0., 0., 0., 0., 0., 0., 0., 0., 0., 0., 0., 0.,
          2.86648542e-01, 1.20442450e-01, 3.61327350e-01, 0.,
          5.48367918e-01, 0., 5.48367918e-01, 2.89327949e-01,
          2.86648542e-01, 0., 0., 0., 0., 0., 0., 0., 0., 0., 0., 0., 0.,
          0., 0., 0., 0., 0., 0., 0., 0., 0., 0., 9.79825854e-01, 0., 0.,
          0., 0., 0., 0., 0., 0., 0., 0., 0., 0., 0., 0., 0., 0., 0., 0.,
          0., 0., 0., 0. ]
      - [ 0., 0., 0., 0., 0., 0., 0., 0., 0., 0., 0., 0., 0., 0., 0., 0.,
          0., 0., 0., 0., 0., 0., 0., 0., 0., 0., 0., 5.40417194e-01,
          7.72445947e-02, 2.31733784e-01, 0., 0., 0., 5.56672871e-01,
          1.85557619e-01, 5.40417194e-01, 0., 0., 0., 0., 0., 0., 0., 0.,
          0., 0., 0., 0., 0., 0., 0., 0., 0., 0., 2.86648542e-01,
          1.20442450e-01, 3.61327350e-01, 0., 5.48367918e-01, 0.,
          5.48367918e-01, 2.89327949e-01, 2.86648542e-01, 0., 0., 0., 0.,
          0., 0., 0., 0., 0., 0., 0., 0., 0., 0., 0., 0., 0., 0. ]
      - [ 7.11300611e-01, 3.64174217e-01, 6.76876754e-02, 0., 0.,
          3.77042145e-02, 2.16125533e-01, 4.56797257e-02, 5.47291756e-01,
          5.08978307e-01, 2.19355598e-01, 6.81524947e-02, 0., 0.,
          3.88117492e-01, 5.08978307e-01, 1.19763210e-01, 5.08978307e-01,
          3.63033295e-01, 0., 0., 0., 0., 4.11982477e-01, 7.02063859e-01,
          2.58422464e-01, 3.63033295e-01, 4.41224545e-01, 4.41224545e-01,
          3.03242087e-01, 0., 1.01958429e-02, 2.55673766e-01,
          4.41224545e-01, 4.41224545e-01, 2.43818387e-01, 4.40592617e-01,
          1.58047155e-01, 2.34318175e-03, 0., 2.29191664e-03,
          4.40592617e-01, 4.40592617e-01, 4.40592617e-01, 4.40592617e-01,
          4.53003734e-01, 3.18973452e-01, 0., 0., 0., 4.53003734e-01,
          4.53003734e-01, 2.69965768e-01, 4.53003734e-01, 2.14674026e-01,
          3.73556167e-01, 3.73556167e-01, 3.73556167e-01, 3.73556167e-01,
          3.73556167e-01, 2.86492467e-01, 3.73556167e-01, 1.75612509e-01,
          2.78229505e-01, 3.00422087e-02, 1.98708614e-03, 2.49956578e-01,
          4.13538992e-01, 4.13538992e-01, 4.13538992e-01, 4.13538992e-01,
          4.13538992e-01, 4.63478178e-01, 1.09728970e-01, 0., 0.,
          1.94886148e-01, 5.27346134e-01, 5.27346134e-01, 2.77041405e-01,
          3.11385006e-01 ]
      - [ 3.80421907e-01, 1.15398258e-01, 3.01983982e-01, 2.91303903e-01,
          3.80360812e-01, 2.88570315e-01, 3.80421907e-01, 3.80421907e-01,
          3.80421907e-01, 4.07398313e-01, 0., 0., 9.48350877e-03,
          4.07398313e-01, 4.07398313e-01, 4.07398313e-01, 4.07398313e-01,
          4.07398313e-01, 2.74809450e-01, 0., 0., 0., 2.00570166e-01,
          4.52179968e-01, 4.74358082e-01, 4.74358082e-01, 4.74358082e-01,
          6.36998937e-02, 4.59500998e-02, 2.50570089e-01, 4.59507793e-01,
          4.59507793e-01, 2.21835956e-01, 4.59507793e-01, 4.59507793e-01,
          1.80706248e-01, 2.75746137e-02, 0., 0., 1.48112059e-01,
          4.87963349e-01, 4.64430451e-01, 4.87963349e-01, 4.87963349e-01,
          2.05933526e-01, 4.55239564e-02, 0., 0., 0., 5.15936255e-01,
          6.06993616e-01, 4.71641213e-01, 3.57992202e-01, 8.14345926e-02,
          0., 0., 6.13628291e-02, 6.14121974e-01, 6.14121974e-01, 0.,
          2.25691214e-01, 4.29910213e-01, 7.20423320e-03, 0., 0., 0.,
          4.50460643e-01, 5.13761103e-01, 0., 5.13761103e-01,
          5.13761103e-01, 1.01395445e-02, 0., 0., 0., 0., 0., 0., 0., 0.,
          0. ]
      - [ 7.02491105e-01, 0., 0., 0., 0., 0., 0., 0., 7.02491105e-01, 0.,
          0., 0., 0., 0., 0., 0., 0., 0., 0., 0., 0., 0., 0., 0., 0., 0.,
          0., 4.19874638e-01, 1.60123453e-01, 4.19874638e-01, 0.,
          4.19874638e-01, 0., 4.19874638e-01, 2.97813237e-01,
          4.19874638e-01, 0., 0., 0., 0., 0., 0., 9.32734251e-01,
          3.10911417e-01, 0., 0., 0., 0., 0., 0., 0., 0., 0., 0., 0.,
          6.77500367e-02, 2.03250125e-01, 0., 8.86831462e-01, 0.,
          3.78024369e-01, 1.26008123e-01, 0., 0., 0., 0., 0., 0., 0.,
          7.86327660e-01, 2.62109220e-01, 0., 0., 0., 0., 0., 0., 0., 0.,
          0., 0. ]
      - [ 0., 0., 0., 0., 0., 0., 0., 0., 0., 0., 0., 0., 0., 0., 0., 0.,
          0., 0., 0., 0., 0., 0., 0., 0., 0., 0., 0., 0., 0., 0., 0., 0.,
          0., 0., 0., 0., 0., 0., 0., 0., 0., 0., 0., 0., 0., 0., 0., 0.,
          0., 0., 0., 0., 0., 0., 4.77140814e-01, 2.90827692e-01,
          4.77140814e-01, 0., 4.77140814e-01, 0., 0., 0., 4.77140814e-01,
          4.83529955e-01, 3.26600894e-02, 9.79802758e-02, 0.,
          4.83529955e-01, 0., 4.83529955e-01, 2.22033605e-01,
          4.83529955e-01, 2.05632836e-01, 0., 0., 0., 2.35768601e-01, 0.,
          8.73317420e-01, 2.91105807e-01, 2.05632836e-01 ]
      - [ 0., 0., 0., 0., 0., 0., 0., 0., 0., 3.56414318e-01,
          2.78135926e-01, 5.18469751e-01, 0., 5.18469751e-01, 0.,
          3.36452872e-01, 1.12150960e-01, 3.56414318e-01, 3.10708344e-01,
          8.33131671e-02, 2.49939516e-01, 0., 5.56004524e-01, 0.,
          5.84440291e-01, 2.84539104e-01, 3.10708344e-01, 0., 0., 0., 0.,
          0., 0., 0., 0., 0., 0., 1.31176397e-01, 3.93529177e-01, 0.,
          8.84239614e-01, 0., 1.58680230e-01, 5.28934076e-02, 0., 0.,
          4.36551310e-02, 1.30965397e-01, 0., 8.56427848e-01, 0.,
          4.47285563e-01, 1.49095178e-01, 0., 0., 0., 0., 0., 0., 0., 0.,
          0., 0., 0., 0., 0., 0., 0., 0., 0., 0., 0., 0., 0., 0., 0., 0.,
          0., 0., 0., 0. ]
      - [ 6.89853728e-01, 5.73910773e-01, 0., 0., 0., 1.94922626e-01,
          2.91400969e-01, 4.58877571e-02, 2.50652403e-01, 5.30340195e-01,
          1.85793281e-01, 0., 0., 0., 3.83947045e-01, 5.30340195e-01,
          2.52524793e-01, 4.31832016e-01, 0., 0., 0., 0., 0., 0.,
          9.21872616e-01, 3.07290882e-01, 0., 4.19269949e-01,
          4.19269949e-01, 3.91002059e-01, 3.94395031e-02, 3.38464081e-01,
          4.19269949e-01, 4.19269949e-01, 1.44975865e-02, 1.53155148e-01,
          5.07859230e-01, 3.64430696e-01, 0., 0., 1.08296029e-01,
          5.07859230e-01, 5.07859230e-01, 1.25448301e-01, 2.46758819e-01,
          4.91161734e-01, 2.74135381e-01, 0., 0., 0., 4.91161734e-01,
          4.91161734e-01, 2.46377453e-01, 3.68134290e-01, 3.57994676e-01,
          3.57994676e-01, 3.57994676e-01, 3.57994676e-01, 3.57994676e-01,
          3.57994676e-01, 3.04587066e-01, 8.08007717e-02, 3.57994676e-01,
          4.77931976e-01, 2.38789335e-01, 8.43350403e-03, 5.33307567e-02,
          8.90851244e-02, 4.77931976e-01, 4.77931976e-01, 1.16956234e-01,
          4.77931976e-01, 3.23601484e-01, 1.56591371e-01, 0., 0., 0.,
          6.50686979e-01, 6.50686979e-01, 1.15691386e-01, 6.39795959e-02 ]
      - [ 5.10953367e-01, 5.10953367e-01, 1.07634343e-01, 0., 0.,
          1.36392787e-01, 3.99796158e-01, 1.47145316e-01, 5.10953367e-01,
          4.51256812e-01, 4.02317077e-01, 7.07898960e-02, 0., 0.,
          2.75379777e-01, 4.51256812e-01, 3.76683176e-01, 4.51256812e-01,
          4.34054285e-01, 4.34054285e-01, 4.34054285e-01, 0., 0., 0.,
          2.31621906e-01, 4.34054285e-01, 4.34054285e-01, 3.84876609e-01,
          3.84876609e-01, 3.67596656e-01, 3.84876609e-01, 1.82117343e-01,
          3.84876609e-01, 3.84876609e-01, 2.18822464e-01, 1.98311657e-01,
          3.33878905e-01, 4.27761793e-01, 4.27761793e-01, 4.66354229e-02,
          5.94260320e-02, 4.27761793e-01, 4.27761793e-01, 3.63472462e-01,
          1.20468460e-01, 3.56780708e-01, 3.56780708e-01, 3.56780708e-01,
          2.93554932e-01, 2.73077101e-01, 3.56780708e-01, 3.56780708e-01,
          3.56780708e-01, 2.68206805e-01, 2.85801608e-02, 1.04387850e-01,
          2.23246306e-01, 4.76880074e-01, 4.76880074e-01, 4.76880074e-01,
          4.76880074e-01, 1.55003026e-01, 0., 4.52664346e-02,
          2.76199788e-01, 4.53955710e-01, 2.55405247e-01, 4.53955710e-01,
          4.49716538e-01, 4.53955710e-01, 1.77274376e-01, 0.,
          5.11607975e-02, 1.94630951e-01, 3.88040215e-01, 4.18751985e-01,
          4.42000717e-01, 4.42000717e-01, 4.42000717e-01, 2.06649438e-01,
          1.89728178e-02 ]
      - [ 5.52227795e-01, 5.52227795e-01, 5.52227795e-01, 0.,
          1.77924067e-01, 1.02304667e-01, 1.36793703e-01, 2.70720609e-02,
          1.34350851e-01, 3.86930615e-01, 3.86930615e-01, 8.32240060e-02,
          0., 3.86930615e-01, 3.01523536e-01, 3.86930615e-01,
          3.86930615e-01, 3.86930615e-01, 6.11850470e-02, 0., 0., 0.,
          2.27334276e-01, 2.28384465e-01, 5.87344587e-01, 5.87344587e-01,
          4.43400472e-01, 4.18609619e-01, 4.18609619e-01, 4.18609619e-01,
          1.58214763e-01, 3.54973376e-01, 3.35814208e-01, 1.38832867e-01,
          1.08620532e-01, 4.18609619e-01, 3.66373450e-01, 1.96130961e-01,
          2.16846913e-01, 1.24167837e-01, 3.90119314e-01, 3.90119314e-01,
          3.90119314e-01, 3.90119314e-01, 3.90119314e-01, 9.08743739e-02,
          0., 0., 0., 3.41824710e-01, 1.42387331e-01, 5.32074571e-01,
          5.32074571e-01, 5.32074571e-01, 1.37602642e-01, 3.45852643e-01,
          4.83530372e-01, 4.83530372e-01, 4.83530372e-01, 1.95524450e-02,
          9.84529592e-03, 9.72499549e-02, 3.81156594e-01, 1.21018812e-01,
          2.20788438e-02, 1.21926278e-01, 4.51068938e-01, 4.51068938e-01,
          1.16166987e-01, 3.71682614e-01, 4.51068938e-01, 4.51068938e-01,
          3.46757770e-02, 0., 0., 9.24579948e-02, 4.57552999e-01,
          3.85045260e-01, 4.57552999e-01, 4.57552999e-01, 4.57552999e-01 ]
      - [ 4.06797141e-01, 4.06797141e-01, 4.06797141e-01, 4.06797141e-01,
          4.06797141e-01, 0., 0., 5.50713129e-02, 4.06797141e-01,
          4.28153992e-01, 1.44074067e-01, 7.00170994e-02, 4.28153992e-01,
          4.28153992e-01, 1.14759088e-01, 3.56051385e-01, 3.11219543e-01,
          4.28153992e-01, 1.90052927e-01, 0., 0., 0., 3.19415063e-01,
          1.82174161e-01, 5.23906589e-01, 5.23906589e-01, 5.23906589e-01,
          3.93898636e-01, 3.93898636e-01, 3.93898636e-01, 3.93898636e-01,
          3.93898636e-01, 0., 0., 2.55202264e-01, 3.93898636e-01,
          3.45269382e-01, 5.77471070e-02, 1.07782722e-01, 4.38306242e-01,
          4.38306242e-01, 1.83585286e-01, 3.43002051e-01, 3.65743041e-01,
          4.38306242e-01, 1.20838270e-01, 0., 0., 0., 5.02805948e-01,
          2.64526814e-01, 5.02805948e-01, 3.97913218e-01, 4.96426672e-01,
          1.87642351e-01, 2.03887060e-01, 4.71646458e-01, 4.71646458e-01,
          4.71646458e-01, 0., 0., 1.69434443e-01, 4.71646458e-01,
          1.76858380e-01, 1.29809612e-02, 1.39880717e-01, 4.50552464e-01,
          4.50552464e-01, 0., 3.63999069e-01, 4.50552464e-01,
          4.50552464e-01, 1.29520416e-01, 0., 0., 0., 5.17742693e-01, 0.,
          5.17742693e-01, 4.84486401e-01, 4.55205172e-01 ]
      - [ 4.30275589e-01, 4.30275589e-01, 4.30275589e-01, 4.30275589e-01,
          2.64606357e-01, 0., 0., 0., 4.30275589e-01, 4.18286234e-01,
          1.36187807e-01, 2.13086650e-01, 3.32137048e-01, 4.18286234e-01,
          3.38112235e-01, 8.59072953e-02, 4.18286234e-01, 4.18286234e-01,
          1.93719208e-01, 0., 0., 0., 3.04744065e-01, 4.25407648e-01,
          4.77445841e-01, 4.77445841e-01, 4.77445841e-01, 3.17270935e-01,
          3.23153436e-01, 4.15690511e-01, 4.15690511e-01, 4.15690511e-01,
          0., 1.17278554e-01, 2.92932808e-01, 4.15690511e-01,
          1.65782586e-01, 6.19910434e-02, 2.11183190e-01, 4.36260700e-01,
          4.36260700e-01, 3.52373362e-01, 1.85085431e-01, 4.36260700e-01,
          4.36260700e-01, 2.14132294e-02, 0., 0., 0., 5.16082704e-01,
          4.78016526e-01, 4.55212533e-01, 5.16082704e-01, 1.61202356e-01,
          2.42473967e-02, 1.45545065e-01, 6.31504118e-01, 6.31504118e-01,
          0., 0., 2.11295672e-02, 3.48332852e-01, 2.29229987e-01,
          4.39550402e-03, 9.06566903e-03, 2.43278041e-01, 4.62372273e-01,
          4.40334409e-01, 0., 3.17548811e-01, 4.62372273e-01,
          4.62372273e-01, 0., 0., 2.50096358e-02, 1.75450176e-01,
          4.01329160e-01, 0., 5.99678040e-01, 5.99678040e-01,
          2.86899656e-01 ]
      - [ 0., 0., 0., 0., 0., 0., 0., 0., 0., 6.69971347e-01, 0., 0., 0.,
          0., 0., 0., 0., 6.69971347e-01, 6.99765503e-01, 0., 0., 0., 0.,
          0., 0., 0., 6.99765503e-01, 0., 3.01260442e-01, 9.03781295e-01,
          0., 0., 0., 0., 0., 0., 4.98753130e-01, 4.98753130e-01,
          4.98753130e-01, 0., 0., 0., 0., 0., 4.98753130e-01,
          4.44410235e-01, 4.44410235e-01, 3.31059724e-01, 0., 0., 0.,
          3.09771597e-01, 4.44410235e-01, 4.44410235e-01, 0.,
          3.13255280e-01, 9.39765871e-01, 0., 0., 0., 0., 0., 0.,
          4.87687171e-01, 4.87687171e-01, 4.87687171e-01, 4.87687171e-01,
          9.95478630e-02, 0., 0., 0., 1.84022516e-01, 2.90796727e-01,
          3.94556522e-01, 3.94556522e-01, 2.82312632e-01, 2.00422585e-01,
          2.92039424e-01, 3.94556522e-01, 3.94556522e-01, 2.89204955e-01 ]
      - [ 0., 7.53094852e-01, 6.07797921e-01, 0., 2.36459658e-01, 0., 0.,
          0., 0., 3.24472636e-01, 4.60228354e-01, 4.60228354e-01,
          2.02197254e-01, 4.60228354e-01, 4.60228354e-01, 3.71716619e-02,
          0., 2.47879531e-02, 2.20066711e-01, 3.61699224e-01,
          3.61699224e-01, 3.61699224e-01, 3.61699224e-01, 3.61699224e-01,
          3.61699224e-01, 3.61699224e-01, 1.79366961e-01, 0.,
          4.58267272e-01, 5.49843073e-01, 0., 6.81080580e-01, 0., 0., 0.,
          0., 2.62326837e-01, 4.93374497e-01, 4.93374497e-01,
          5.86736947e-03, 4.93374497e-01, 4.34037775e-01, 5.53155057e-02,
          9.34580714e-03, 6.65683970e-02, 2.18172178e-01, 4.28819805e-01,
          4.28819805e-01, 5.13609052e-02, 4.28819805e-01, 4.28819805e-01,
          4.28819805e-01, 1.61132827e-01, 9.12840944e-03, 0., 0., 0., 0.,
          0., 0., 0., 0., 0., 2.75998443e-01, 3.96984428e-01,
          5.50105989e-01, 0., 5.50105989e-01, 9.32780132e-02,
          2.94205099e-01, 9.36362520e-02, 2.26884261e-01, 2.12698683e-01,
          2.59714335e-01, 2.96373785e-01, 0., 5.02374172e-01,
          5.02374172e-01, 5.02374172e-01, 1.54423639e-01, 1.16046540e-01 ]
      - [ 4.37223494e-01, 4.37223494e-01, 4.37223494e-01, 3.28097135e-01,
          4.37223494e-01, 0., 0., 1.04493856e-01, 3.35273564e-01,
          3.73422772e-01, 3.73422772e-01, 1.52310327e-01, 2.45698258e-01,
          3.73422772e-01, 3.73422772e-01, 3.41667354e-01, 3.14235389e-01,
          3.73422772e-01, 3.19610447e-01, 1.08650118e-01, 0., 0.,
          2.67140001e-01, 5.36527514e-01, 5.97901165e-01, 3.14112753e-01,
          2.54354000e-01, 4.63651091e-01, 2.45641038e-01, 4.63651091e-01,
          2.26372331e-01, 4.63651091e-01, 0., 0., 1.54581696e-01,
          4.63651091e-01, 4.63919222e-01, 4.59057800e-02, 1.04910254e-01,
          2.12881520e-01, 4.63919222e-01, 2.49712989e-01, 1.17018744e-01,
          4.63919222e-01, 4.63919222e-01, 3.79095882e-01, 0., 0., 0.,
          2.68841326e-01, 2.74110079e-01, 5.51460028e-01, 3.71785641e-01,
          4.99812841e-01, 2.87274271e-01, 2.09271774e-01, 4.70078856e-01,
          4.70078856e-01, 4.70078856e-01, 0., 0., 2.00100169e-01,
          4.07456785e-01, 4.02498871e-01, 1.23359514e-02, 1.63097814e-01,
          4.02498871e-01, 4.02498871e-01, 2.89080113e-01, 2.75012612e-01,
          4.02498871e-01, 4.02498871e-01, 1.82469040e-01, 0., 0., 0.,
          4.43827331e-01, 3.48137110e-01, 5.36696136e-01, 5.02554178e-01,
          3.20249617e-01 ]
      - [ 4.73847389e-01, 4.73847389e-01, 4.73847389e-01, 1.11006774e-01,
          4.12449688e-01, 3.27680916e-01, 8.05857033e-02, 1.01869637e-02,
          1.58944279e-01, 4.35320824e-01, 2.51737416e-01, 3.61830108e-02,
          1.47034042e-02, 3.47140491e-01, 4.35320824e-01, 4.35320824e-01,
          2.30133951e-01, 4.34480995e-01, 2.80433267e-01, 2.61470173e-02,
          0., 0., 3.12546104e-01, 4.75617230e-01, 4.75617230e-01,
          4.75617230e-01, 3.73634517e-01, 3.33066463e-01, 3.55439276e-01,
          3.55439276e-01, 1.97166637e-01, 3.55439276e-01, 3.55439276e-01,
          3.55439276e-01, 2.97688663e-01, 3.55439276e-01, 4.54774946e-01,
          1.42651439e-01, 6.21522404e-02, 3.12204845e-02, 4.54774946e-01,
          4.54774946e-01, 3.30097795e-01, 1.84457615e-01, 4.54774946e-01,
          4.25117612e-01, 3.89243476e-02, 0., 0., 2.53119677e-01,
          4.58197027e-01, 6.07489407e-01, 1.79438993e-01, 3.65550190e-01,
          5.88966943e-02, 1.21341072e-01, 5.06608367e-01, 5.06608367e-01,
          3.77062947e-01, 1.50326611e-02, 3.17816883e-02, 2.51752555e-01,
          5.06608367e-01, 2.72768617e-01, 5.73426560e-02, 1.69226423e-01,
          4.01595801e-01, 4.18541253e-01, 3.71150076e-01, 2.54810929e-01,
          4.18541253e-01, 4.18541253e-01, 3.70500654e-01, 5.17038926e-02,
          0., 0., 2.47981161e-01, 4.74732220e-01, 4.74732220e-01,
          4.74732220e-01, 3.43085468e-01 ]
      - [ 4.32115078e-01, 4.32115078e-01, 4.32115078e-01, 4.47543189e-02,
          4.32115078e-01, 4.32115078e-01, 2.13792503e-01, 7.94242695e-03,
          1.19554147e-01, 4.05120105e-01, 3.73288244e-01, 6.20036162e-02,
          3.08201090e-03, 4.05120105e-01, 4.05120105e-01, 4.05120105e-01,
          1.79286018e-01, 4.05120105e-01, 1.58123504e-02, 0., 0., 0.,
          5.34949005e-01, 5.06816693e-02, 5.34949005e-01, 4.57663357e-01,
          4.58303988e-01, 3.44352692e-01, 3.44352692e-01, 3.44352692e-01,
          2.18927637e-01, 3.44352692e-01, 3.44352692e-01, 3.44352692e-01,
          3.44352692e-01, 3.44352692e-01, 1.97399408e-01, 2.01174349e-01,
          1.17873661e-01, 5.49195744e-02, 4.26107138e-01, 4.26107138e-01,
          4.26107138e-01, 4.26107138e-01, 4.16084588e-01, 0., 0., 0., 0.,
          9.81024504e-01, 0., 0., 0., 0., 1.09252453e-01, 1.21544540e-01,
          4.85999793e-01, 4.85999793e-01, 1.46725699e-01, 2.94162985e-02,
          3.54926363e-02, 4.85999793e-01, 4.85999793e-01, 2.46055275e-01,
          2.35216320e-03, 1.18935853e-01, 4.38765347e-01, 4.34511304e-01,
          1.70638233e-01, 3.54203612e-01, 4.38765347e-01, 4.38765347e-01,
          4.55100238e-01, 0., 0., 0., 1.56084403e-01, 4.26504314e-01,
          5.12901962e-01, 2.35278830e-01, 5.12901962e-01 ]
      - [ 4.63137120e-01, 4.63137120e-01, 3.89670879e-01, 1.17415220e-01,
          4.78080772e-02, 3.93119186e-01, 1.50401235e-01, 8.25070068e-02,
          4.63137120e-01, 4.30995226e-01, 1.66556731e-01, 4.54532029e-03,
          1.19674839e-02, 1.97497740e-01, 4.30995226e-01, 4.30995226e-01,
          4.30995226e-01, 4.30995226e-01, 7.49481395e-02, 0., 0., 0.,
          9.26356837e-02, 4.68450576e-01, 5.03760636e-01, 5.03760636e-01,
          5.03760636e-01, 1.86605051e-01, 3.31058145e-01, 4.06510592e-01,
          4.06510592e-01, 2.23877713e-01, 4.06510592e-01, 4.06510592e-01,
          3.63656521e-01, 9.02620107e-02, 1.05052754e-01, 3.85583490e-02,
          5.46358898e-02, 4.06379312e-01, 4.06379312e-01, 4.06379312e-01,
          4.06379312e-01, 4.06379312e-01, 3.93334210e-01, 0., 0., 0., 0.,
          2.97132581e-01, 5.44890583e-01, 5.44890583e-01, 5.44890583e-01,
          1.24714866e-01, 9.81342234e-03, 4.07846551e-03, 2.15527192e-01,
          6.05331123e-01, 6.05331123e-01, 8.57579783e-02, 6.43888116e-02,
          4.21761304e-01, 1.58607498e-01, 3.37083265e-02, 0.,
          8.83923247e-02, 4.95637089e-01, 4.95637089e-01, 1.48605242e-01,
          3.27419549e-01, 4.95637089e-01, 3.46186310e-01, 0., 0.,
          1.93770155e-02, 1.35935634e-01, 5.55597782e-01, 0.,
          5.55597782e-01, 5.55597782e-01, 2.22555742e-01 ]
      - [ 4.36769545e-01, 4.36769545e-01, 9.76276696e-02, 0.,
          1.44688040e-01, 4.36769545e-01, 4.36769545e-01, 1.06457300e-01,
          4.36769545e-01, 3.81220073e-01, 1.12271920e-01, 0., 0.,
          3.56796570e-02, 2.90217757e-01, 7.72100866e-01, 2.32933804e-01,
          3.13788325e-01, 0., 0., 0., 0., 0., 0., 0., 0., 0.,
          3.50262970e-01, 3.50262970e-01, 3.50262970e-01, 1.73093408e-01,
          3.50262970e-01, 3.50262970e-01, 3.50262970e-01, 3.50262970e-01,
          3.28253061e-01, 3.20165724e-01, 4.84432206e-02, 0., 0.,
          4.12095875e-01, 3.64440888e-01, 6.33458376e-01, 3.16529840e-01,
          2.91070193e-01, 0., 0., 0., 0., 0., 0., 0., 0., 0.,
          1.16276391e-01, 9.58337858e-02, 2.87501335e-01, 2.98377901e-01,
          7.36768425e-01, 0., 3.47068787e-01, 3.48497748e-01,
          1.16276391e-01, 7.70532861e-02, 0., 0., 0., 7.55816996e-01, 0.,
          6.00259602e-01, 2.00086534e-01, 7.70532861e-02, 0., 0., 0., 0.,
          0., 0., 0., 0., 0. ]
      - [ 0., 6.63874820e-02, 1.99162453e-01, 0., 9.16060448e-01, 0.,
          3.06539387e-01, 1.02179803e-01, 0., 0., 0., 0., 0., 0., 0.,
          7.86327660e-01, 2.62109220e-01, 0., 0., 0., 0., 0., 0., 0., 0.,
          0., 0., 0., 0., 0., 0., 0., 0., 0., 0., 0., 0., 0., 0., 0., 0.,
          0., 0., 0., 0., 0., 0., 0., 0., 0., 0., 0., 0., 0., 0., 0., 0.,
          0., 0., 0., 0., 0., 0., 0., 0., 0., 0., 0., 0., 0., 0., 0., 0.,
          0., 0., 0., 0., 0., 0., 0., 0. ]
      - [ 2.59720176e-01, 3.11103314e-01, 1.89379349e-01, 0.,
          5.06724358e-01, 0., 4.07041550e-01, 5.06724358e-01,
          3.40019017e-01, 0., 0., 0., 0., 4.83424634e-01, 0.,
          7.19960392e-01, 4.69638050e-01, 1.37931243e-01, 0., 0., 0., 0.,
          0., 0., 0., 0., 0., 0., 0., 0., 0., 9.91360247e-01, 0., 0., 0.,
          0., 0., 0., 0., 0., 8.59519482e-01, 0., 0., 0., 0., 0., 0., 0.,
          0., 0., 0., 0., 0., 0., 0., 0., 0., 0., 0., 0., 0., 0., 0., 0.,
          0., 0., 0., 0., 0., 0., 0., 0., 0., 0., 0., 0., 0., 0., 0., 0.,
          0. ]
      - [ 0., 3.12945694e-01, 9.38837111e-01, 0., 0., 0., 0., 0., 0.,
          4.15080279e-01, 4.15080279e-01, 4.15080279e-01, 4.15080279e-01,
          0., 0., 0., 3.66599888e-01, 4.15080279e-01, 1.55907944e-01,
          8.93294290e-02, 3.58431607e-01, 3.31548005e-01, 0., 0.,
          5.21929637e-02, 6.00249171e-01, 6.00249171e-01, 3.91550928e-01,
          2.38891438e-01, 6.42743409e-01, 3.16638142e-01, 0., 0., 0.,
          1.67015612e-01, 4.91862476e-01, 4.40109223e-01, 4.40109223e-01,
          4.40109223e-01, 4.40109223e-01, 0., 0., 0., 1.64691180e-01,
          4.40109223e-01, 1.22648969e-01, 4.32182044e-01, 4.32182044e-01,
          2.16179207e-01, 0., 0., 4.32182044e-01, 4.32182044e-01,
          4.32182044e-01, 1.69784561e-01, 3.01573783e-01, 6.42179549e-01,
          6.42179549e-01, 0., 0., 0., 6.80990517e-02, 2.10685655e-01,
          4.58759606e-01, 4.58759606e-01, 4.58759606e-01, 4.58759606e-01,
          1.54459327e-01, 2.65320987e-02, 2.84952838e-02, 1.81217119e-02,
          3.57595116e-01, 3.11005950e-01, 4.02302086e-01, 1.96084902e-01,
          3.88197333e-01, 2.45228589e-01, 4.02302086e-01, 4.02302086e-01,
          4.02302086e-01, 5.08413948e-02 ]
      - [ 3.80625546e-01, 3.80625546e-01, 3.80625546e-01, 2.70827562e-01,
          3.80625546e-01, 3.21809292e-01, 2.96798199e-01, 2.13328540e-01,
          3.25863868e-01, 3.00914913e-01, 7.94476196e-02, 4.44942191e-02,
          4.45228159e-01, 4.45228159e-01, 7.14116544e-02, 3.14164430e-01,
          4.45228159e-01, 4.45228159e-01, 6.68333173e-02, 0.,
          2.56961044e-02, 2.31041774e-01, 3.87500137e-01, 0.,
          5.11932135e-01, 5.11932135e-01, 5.11932135e-01, 1.21137183e-02,
          2.41867512e-01, 4.18648958e-01, 4.18648958e-01, 4.18648958e-01,
          1.72761217e-01, 4.18648958e-01, 4.18648958e-01, 1.76039889e-01,
          1.47262895e-02, 2.02621915e-03, 8.76644701e-02, 4.78124678e-01,
          4.78124678e-01, 5.87578639e-02, 4.78124678e-01, 4.78124678e-01,
          2.63539433e-01, 0., 0., 5.91175780e-02, 4.54866558e-01,
          4.96301889e-01, 0., 4.96301889e-01, 4.96301889e-01,
          2.13770613e-01, 0., 3.04451007e-02, 2.42139116e-01,
          6.27045572e-01, 6.27045572e-01, 0., 1.61612704e-01,
          3.12382609e-01, 1.55265167e-01, 0., 0., 4.17045169e-02,
          2.92569846e-01, 7.03520834e-01, 0., 5.02909005e-01,
          3.76477957e-01, 1.25432730e-01, 0., 0., 0., 0., 0., 0., 0., 0.,
          0. ]
      - [ 0., 0., 0., 0., 0., 0., 0., 0., 0., 0., 0., 0., 0., 0., 0., 0.,
          0., 0., 5.17514884e-01, 1.87465444e-01, 5.17514884e-01, 0.,
          2.01808482e-01, 0., 3.22408110e-01, 1.07469365e-01,
          5.17514884e-01, 0., 0., 0., 0., 0., 0., 0., 0., 0., 0., 0., 0.,
          0., 0., 0., 0., 0., 0., 3.16243023e-01, 2.91208506e-01,
          4.76985067e-01, 0., 4.76985067e-01, 0., 4.76985067e-01,
          1.66942716e-01, 3.16243023e-01, 0., 0., 0., 0., 0., 0., 0., 0.,
          0., 0., 0., 0., 0., 0., 0., 0., 0., 0., 0., 0., 0., 0.,
          9.83855247e-01, 0., 0., 0., 0. ]
      - [ 0., 0., 0., 0., 0., 0., 0., 0., 0., 6.69971347e-01, 0., 0., 0.,
          0., 0., 0., 0., 6.69971347e-01, 6.99765503e-01, 0., 0., 0., 0.,
          0., 0., 0., 6.99765503e-01, 0., 0., 0., 0., 0., 0., 0., 0., 0.,
          1.98137298e-01, 3.36583078e-01, 7.79621482e-01, 4.38867211e-01,
          0., 0., 0., 0., 1.98137298e-01, 3.56154561e-01, 3.48512858e-01,
          3.98226112e-01, 3.98226112e-01, 0., 0., 3.36716920e-01,
          3.98226112e-01, 3.98226112e-01, 0., 0., 0., 0., 0., 0., 0., 0.,
          0., 2.87515700e-01, 5.91623366e-01, 5.91623366e-01,
          4.13045824e-01, 0., 0., 0., 0., 2.01951027e-01, 1.40506521e-01,
          4.10724401e-01, 4.10724401e-01, 1.80439189e-01, 1.40299380e-01,
          4.10724401e-01, 4.10724401e-01, 3.58600169e-01, 3.47189426e-01 ]
      - [ 0., 0., 0., 0., 0., 0., 0., 0., 0., 4.70969379e-01,
          4.86865520e-01, 4.86865520e-01, 4.86865520e-01, 2.15437129e-01,
          0., 0., 0., 1.25689179e-01, 3.73933882e-01, 3.73933882e-01,
          3.73933882e-01, 3.33139390e-01, 6.54196516e-02, 2.48613566e-01,
          3.73933882e-01, 3.46498519e-01, 3.73933882e-01, 0., 0., 0., 0.,
          0., 0., 0., 0., 0., 0., 6.35488033e-01, 6.35488033e-01,
          3.75702381e-01, 2.11690724e-01, 0., 0., 0., 0., 1.05124395e-02,
          4.34448689e-01, 4.34448689e-01, 2.01974109e-01, 4.34448689e-01,
          4.34448689e-01, 4.34448689e-01, 9.37362835e-02, 4.73427922e-02,
          0., 0., 0., 0., 0., 0., 0., 0., 0., 0., 4.15140867e-01,
          6.45950913e-01, 3.26834619e-01, 5.33383250e-01, 0., 0., 0., 0.,
          0., 2.54124254e-01, 2.33243421e-01, 2.88483679e-01,
          6.26369178e-01, 6.26369178e-01, 8.15034211e-02, 1.49033582e-02,
          0. ]
      - [ 0., 0., 0., 0., 0., 0., 0., 0., 0., 0., 3.01260442e-01,
          9.03781295e-01, 0., 0., 0., 0., 0., 0., 6.42209768e-01,
          9.65850055e-02, 2.89755046e-01, 0., 0., 0., 2.59254545e-01,
          8.64181742e-02, 6.42209768e-01, 0., 0., 0., 0., 0., 0., 0., 0.,
          0., 0., 4.47316557e-01, 8.89400661e-01, 0., 0., 0., 0., 0., 0.,
          3.66304398e-01, 3.92933935e-01, 4.45110798e-01, 0.,
          2.30105191e-01, 0., 4.45110798e-01, 3.51572514e-01,
          3.66304398e-01, 0., 0., 0., 0., 0., 0., 0., 0., 0., 0.,
          3.14024568e-01, 9.42073703e-01, 0., 0., 0., 0., 0., 0., 0.,
          2.67209023e-01, 5.37299871e-01, 0., 5.37299871e-01, 0.,
          5.37299871e-01, 2.39081800e-01, 0. ]
      - [ 0., 0., 0., 0., 0., 0., 0., 0., 0., 0., 0., 0., 0., 0., 0., 0.,
          0., 0., 0., 0., 0., 0., 0., 0., 0., 0., 0., 0., 0., 0., 0., 0.,
          0., 0., 0., 0., 5.87697804e-01, 1.64814815e-01, 4.94444430e-01,
          0., 0., 0., 1.38834119e-01, 4.62780371e-02, 5.87697804e-01,
          6.13814890e-01, 5.91477714e-02, 1.77443326e-01, 0., 0., 0.,
          4.26255852e-01, 1.42085284e-01, 6.13814890e-01, 0., 0., 0., 0.,
          0., 0., 0., 0., 0., 3.25873464e-01, 3.42932642e-01,
          5.34766018e-01, 0., 5.34766018e-01, 0., 2.88874239e-01,
          9.62914154e-02, 3.25873464e-01, 3.79149318e-01, 1.37097314e-01,
          4.11291957e-01, 0., 4.53619540e-01, 0., 4.53619540e-01,
          3.29336405e-01, 3.79149318e-01 ]
      - [ 0., 0., 0., 0., 0., 0., 0., 0., 0., 2.55941272e-01,
          4.74550486e-01, 4.74550486e-01, 4.32866633e-01, 4.74550486e-01,
          2.55844027e-01, 3.64693366e-02, 0., 0., 8.72963145e-02,
          3.65897417e-01, 3.65897417e-01, 3.65897417e-01, 3.65897417e-01,
          3.65897417e-01, 3.65897417e-01, 3.65897417e-01, 2.27062225e-01,
          0., 0., 0., 0., 0., 0., 0., 0., 0., 0., 2.74997592e-01,
          8.24992776e-01, 0., 4.70149696e-01, 0., 0., 0., 0., 0.,
          2.12813377e-01, 5.76234698e-01, 0., 5.76234698e-01,
          3.63233596e-01, 3.74308288e-01, 1.13218568e-01, 0., 0., 0., 0.,
          0., 0., 0., 0., 0., 0., 0., 0., 0., 0., 0., 0., 0., 0., 0., 0.,
          0., 0., 0., 0., 0., 0., 0., 0. ]
      - [ 4.16003078e-01, 4.16003078e-01, 3.24494064e-01, 3.92108969e-02,
          9.58682746e-02, 4.16003078e-01, 3.86453748e-01, 1.95547342e-01,
          4.16003078e-01, 4.46106911e-01, 1.03171896e-02, 0., 0.,
          1.95062626e-02, 4.46106911e-01, 4.46106911e-01, 4.46106911e-01,
          4.46106911e-01, 0., 0., 0., 0., 0., 0., 0., 0., 0.,
          1.55347556e-01, 3.76470298e-01, 3.84027213e-01, 3.84027213e-01,
          2.45644361e-01, 3.84027213e-01, 3.84027213e-01, 3.84027213e-01,
          1.80485353e-01, 1.56939089e-01, 3.02736647e-03, 1.68302599e-02,
          2.08149537e-01, 1.67232156e-01, 4.80560035e-01, 4.80560035e-01,
          4.80560035e-01, 4.54061002e-01, 0., 0., 0., 0., 0., 0., 0., 0.,
          0., 1.70506816e-02, 9.66205355e-03, 3.37407976e-01,
          5.66183448e-01, 5.66183448e-01, 2.03338042e-01, 1.91121042e-01,
          3.72387022e-01, 1.49816900e-01, 1.67742223e-02, 0.,
          3.86706069e-02, 3.45775813e-01, 4.69878495e-01, 4.69878495e-01,
          4.69878495e-01, 4.33298439e-01, 1.54480577e-01, 0., 0., 0., 0.,
          0., 0., 0., 0., 0. ]
      - [ 0., 0., 0., 0., 0., 0., 0., 0., 0., 0., 0., 0., 0., 0., 0., 0.,
          0., 0., 0., 0., 0., 0., 0., 0., 0., 0., 0., 0., 0., 0., 0., 0.,
          0., 0., 0., 0., 0., 0., 0., 0., 0., 0., 0., 0., 0., 0., 0., 0.,
          0., 0., 0., 0., 0., 0., 0., 0., 0., 0., 0., 0., 0., 0., 0.,
          4.42889780e-01, 2.21851394e-01, 4.42889780e-01, 0.,
          4.42889780e-01, 0., 3.81545991e-01, 1.27181992e-01,
          4.42889780e-01, 3.06391358e-01, 5.21141551e-02, 1.56342447e-01,
          0., 3.51293415e-01, 0., 7.66782939e-01, 2.55594313e-01,
          3.06391358e-01 ]
      - [ 4.02490139e-01, 4.51888084e-01, 4.51888084e-01, 4.51888084e-01,
          3.22069019e-01, 0., 0., 1.41429916e-01, 3.11686635e-01,
          3.41329098e-01, 2.51744628e-01, 3.17168832e-01, 4.20543343e-01,
          4.04169470e-01, 0., 1.46284193e-01, 4.20543343e-01,
          4.20543343e-01, 0., 6.24059886e-03, 4.35199328e-02,
          1.73966438e-01, 6.06078506e-02, 0., 6.08809531e-01,
          6.34339571e-01, 4.29837495e-01, 3.58757108e-01, 3.03073406e-01,
          4.75557655e-01, 4.41591501e-01, 3.64651412e-01, 0.,
          7.81034231e-02, 1.71174109e-01, 4.30302739e-01, 2.55278945e-01,
          1.53526992e-01, 3.88882369e-01, 3.88882369e-01, 3.88882369e-01,
          0., 3.88882369e-01, 3.88882369e-01, 3.88882369e-01,
          2.09664144e-02, 2.90571451e-02, 1.10141821e-01, 1.61144122e-01,
          5.78590989e-01, 0., 5.78590989e-01, 5.17543018e-01,
          1.32113814e-01, 9.11260471e-02, 2.43449464e-01, 6.28533185e-01,
          3.22755069e-01, 6.28533185e-01, 0., 9.45229456e-02,
          8.66331011e-02, 1.24235041e-01, 2.59915024e-01, 1.69170946e-01,
          4.64641809e-01, 1.94907203e-01, 4.64641809e-01, 0.,
          4.64641809e-01, 3.34598660e-01, 3.18689883e-01, 1.32507548e-01,
          0., 0., 0., 4.85492498e-01, 0., 8.03220570e-01, 2.67740220e-01,
          1.32507548e-01 ]
      - [ 0., 0., 0., 0., 0., 0., 0., 0., 0., 4.81660426e-01,
          4.81660426e-01, 4.81660426e-01, 2.38644063e-01, 1.01247877e-01,
          0., 0., 0., 4.81660426e-01, 3.61774653e-01, 2.92415977e-01,
          5.10933697e-01, 2.03486949e-01, 1.87648460e-02, 0.,
          1.04976974e-01, 3.44612181e-01, 5.87499380e-01, 0., 0., 0., 0.,
          0., 0., 0., 0., 0., 3.17228615e-01, 5.12981951e-01,
          5.12981951e-01, 5.12981951e-01, 2.68928647e-01, 1.68457497e-02,
          0., 0., 1.79401517e-01, 2.77391136e-01, 3.59570205e-01,
          3.59570205e-01, 3.43205541e-01, 2.31135324e-01, 3.59570205e-01,
          3.59570205e-01, 3.19052726e-01, 3.59570205e-01, 0., 0., 0., 0.,
          0., 0., 0., 0., 0., 1.45149320e-01, 4.88699734e-01,
          4.88699734e-01, 4.88699734e-01, 4.88699734e-01, 1.21840097e-01,
          0., 0., 6.24177195e-02, 1.79277614e-01, 4.29430157e-01,
          4.29430157e-01, 1.81672499e-01, 4.29430157e-01, 4.29430157e-01,
          4.29430157e-01, 8.47885758e-02, 3.63952816e-02 ]
      - [ 0., 0., 0., 0., 0., 0., 0., 0., 0., 0., 5.27889967e-01,
          5.27889967e-01, 3.55985224e-01, 5.27889967e-01, 1.78883001e-01,
          0., 0., 0., 2.58984584e-02, 4.02355760e-01, 4.02355760e-01,
          4.02355760e-01, 4.02355760e-01, 4.02355760e-01, 4.02355760e-01,
          1.52636692e-01, 2.58984584e-02, 0., 0., 0., 0., 0., 0., 0., 0.,
          0., 0., 3.12150687e-01, 9.36452091e-01, 0., 0., 0., 0., 0., 0.,
          1.54341370e-01, 2.44054005e-01, 5.47990680e-01, 0.,
          5.47990680e-01, 7.70250633e-02, 5.07769406e-01, 1.51567355e-01,
          1.54341370e-01, 0., 0., 0., 0., 0., 0., 0., 0., 0., 0., 0., 0.,
          0., 0., 0., 0., 0., 0., 0., 0., 0., 0., 0., 0., 0., 0., 0. ]
      - [ 1.73143879e-01, 3.94791722e-01, 5.32793462e-01, 5.32793462e-01,
          4.69528377e-01, 0., 1.18970349e-01, 3.96567844e-02,
          7.01337531e-02, 2.31399819e-01, 2.26093307e-01, 3.54765177e-01,
          4.31982577e-01, 4.56152022e-01, 0., 4.56152022e-01,
          3.71959239e-01, 1.54302999e-01, 0., 0., 0., 0., 0., 0.,
          9.40010667e-01, 3.13336879e-01, 0., 0., 0., 0., 0.,
          9.25867319e-01, 0., 0., 0., 0., 0., 0., 0., 0., 9.85427797e-01,
          0., 0., 0., 0., 0., 0., 0., 0., 0., 0., 0., 0., 0., 0., 0., 0.,
          0., 0., 0., 0., 0., 0., 0., 0., 0., 0., 0., 0., 0., 0., 0., 0.,
          0., 0., 0., 0., 0., 0., 0., 0. ]
      - [ 0., 0., 0., 0., 0., 0., 0., 0., 0., 0., 0., 0., 0., 0., 0., 0.,
          0., 0., 0., 0., 0., 0., 0., 0., 0., 0., 0., 6.52062416e-01,
          3.04906160e-01, 1.89440086e-01, 0., 0., 0., 0., 1.19431511e-01,
          6.52062416e-01, 5.78321874e-01, 2.38829181e-02, 0., 0., 0., 0.,
          0., 4.79422450e-01, 6.54669106e-01, 0., 0., 0., 0., 0., 0., 0.,
          0., 0., 3.82886559e-01, 3.82886559e-01, 3.82886559e-01,
          3.82886559e-01, 3.82886559e-01, 2.99069732e-01, 8.15984607e-02,
          1.43042147e-01, 3.82886559e-01, 3.30741048e-01, 2.90848035e-02,
          2.41059028e-02, 1.69110224e-01, 4.13872153e-01, 4.13872153e-01,
          4.13872153e-01, 4.13872153e-01, 4.13872153e-01, 0., 0., 0., 0.,
          0., 0., 9.32734251e-01, 3.10911417e-01, 0. ]
      - [ 4.84572142e-01, 4.84572142e-01, 3.41432214e-01, 7.61316270e-02,
          3.86328176e-02, 9.43223014e-02, 3.22689980e-01, 2.32033849e-01,
          4.84572142e-01, 4.25745010e-01, 2.99055815e-01, 0., 0.,
          4.30831267e-03, 4.25745010e-01, 4.25745010e-01, 4.25745010e-01,
          4.25745010e-01, 0., 0., 0., 0., 0., 0., 9.39460695e-01,
          3.13153565e-01, 0., 3.69400322e-01, 3.69400322e-01,
          3.69400322e-01, 3.69400322e-01, 3.69400322e-01, 3.29203933e-01,
          3.69400322e-01, 2.37141296e-01, 1.13836661e-01, 1.10929474e-01,
          3.44699174e-02, 2.43131742e-02, 3.04248393e-01, 2.08937481e-01,
          5.28303862e-01, 5.28303862e-01, 5.28303862e-01, 8.42765793e-02,
          0., 0., 0., 0., 0., 0., 8.94191086e-01, 2.98063695e-01, 0., 0.,
          1.23918671e-02, 2.18390927e-01, 6.35668397e-01, 6.35668397e-01,
          1.32130727e-01, 3.30739617e-01, 1.03968322e-01, 0., 0., 0.,
          7.81986117e-02, 5.28859675e-01, 5.28859675e-01, 5.24915121e-02,
          5.28859675e-01, 3.83106172e-01, 0., 0., 0., 0., 0., 0., 0., 0.,
          0., 0. ]
      - [ 3.81192863e-01, 3.81192863e-01, 3.81192863e-01, 1.42773595e-02,
          0., 3.81192863e-01, 3.81192863e-01, 3.52334946e-01,
          3.81192863e-01, 4.05398399e-01, 1.04557671e-01, 6.44597970e-03,
          0., 0., 4.52812165e-01, 4.52812165e-01, 4.52812165e-01,
          4.52812165e-01, 0., 0., 0., 0., 0., 0., 0., 0., 0.,
          3.54678370e-02, 3.93528312e-01, 3.93528312e-01, 3.93528312e-01,
          3.57823074e-01, 2.80150145e-01, 3.93528312e-01, 3.93528312e-01,
          1.18179448e-01, 4.24744096e-03, 5.04670180e-02, 1.33197367e-01,
          2.70372123e-01, 1.46925077e-01, 4.33875382e-01, 5.75649321e-01,
          5.75649321e-01, 1.68122113e-01, 0., 0., 0., 0., 0., 0., 0., 0.,
          0., 0., 2.15367049e-01, 4.58004683e-01, 4.58004683e-01,
          4.58004683e-01, 2.44210795e-01, 4.58004683e-01, 2.23605186e-01,
          1.81912910e-02, 0., 4.07726169e-02, 1.42420605e-01,
          3.54154915e-01, 5.18390596e-01, 3.42131585e-01, 5.18390596e-01,
          4.39161420e-01, 8.75690300e-03, 0., 0., 0., 0., 0., 0., 0., 0.,
          0. ]
      - [ 6.42209768e-01, 9.65850055e-02, 2.89755046e-01, 0., 0., 0.,
          2.59254545e-01, 8.64181742e-02, 6.42209768e-01, 5.15075326e-01,
          0., 0., 0., 0., 0., 6.11239076e-01, 2.03746349e-01,
          5.15075326e-01, 0., 0., 0., 0., 0., 0., 0., 0., 0.,
          3.87226313e-01, 3.12388122e-01, 4.16430146e-01, 0.,
          4.16430146e-01, 0., 4.16430146e-01, 2.79505193e-01,
          3.87226313e-01, 1.77930787e-01, 0., 0., 0., 3.16582024e-01, 0.,
          8.28042686e-01, 3.77543449e-01, 1.77930787e-01, 0., 0., 0., 0.,
          0., 0., 0., 0., 0., 0., 1.47455633e-01, 4.42366928e-01, 0.,
          7.75091410e-01, 0., 3.95802021e-01, 1.31934002e-01, 0., 0., 0.,
          0., 0., 7.31476724e-01, 0., 6.22716486e-01, 2.07572177e-01, 0.,
          0., 0., 0., 0., 0., 0., 0., 0., 0. ]
      - [ 6.97010636e-01, 0., 0., 0., 0., 0., 0., 0., 6.97010636e-01, 0.,
          0., 0., 0., 0., 0., 0., 0., 0., 0., 0., 0., 0., 0., 0., 0., 0.,
          0., 3.68431717e-01, 1.18030742e-01, 3.54092211e-01, 0.,
          5.01895905e-01, 0., 5.01895905e-01, 2.83534527e-01,
          3.68431717e-01, 0., 0., 0., 0., 0., 0., 0., 0., 0., 0., 0., 0.,
          0., 0., 0., 0., 0., 0., 0., 5.40033802e-02, 1.62010133e-01, 0.,
          8.86745691e-01, 0., 3.89182210e-01, 1.29727408e-01, 0., 0., 0.,
          0., 0., 0., 0., 0., 0., 0., 0., 0., 0., 0., 0., 0., 0., 0., 0. ]
      - [ 0., 0., 0., 0., 0., 0., 0., 0., 0., 0., 3.13005447e-01,
          9.39016402e-01, 0., 0., 0., 0., 0., 0., 0., 2.71134555e-01,
          5.23595810e-01, 8.31442252e-02, 5.23595810e-01, 7.25391731e-02,
          5.23595810e-01, 2.93130368e-01, 2.64347363e-02, 0., 0., 0., 0.,
          0., 0., 0., 0., 0., 0., 0., 0., 0., 0., 0., 0., 0., 0., 0.,
          6.95262328e-02, 2.08578691e-01, 0., 9.62379277e-01, 0.,
          1.19573094e-01, 3.98576967e-02, 0., 0., 0., 0., 0., 0., 0., 0.,
          0., 0., 0., 0., 0., 0., 0., 0., 0., 0., 0., 0., 0., 0., 0., 0.,
          0., 0., 0., 0. ]
      - [ 0., 0., 0., 0., 0., 0., 0., 0., 0., 0., 0., 0., 0., 0., 0., 0.,
          0., 0., 7.00271189e-01, 0., 0., 0., 0., 0., 0., 0.,
          7.00271189e-01, 0., 0., 0., 0., 0., 0., 0., 0., 0., 0.,
          4.03514236e-01, 9.09998357e-01, 0., 0., 0., 0., 0., 0.,
          3.76855105e-01, 4.33991879e-01, 4.33991879e-01, 0., 0.,
          2.39277333e-02, 4.33991879e-01, 3.15716326e-01, 4.33991879e-01,
          0., 0., 0., 0., 0., 0., 0., 0., 0., 0., 5.62250555e-01,
          8.21992218e-01, 0., 0., 0., 0., 0., 0., 4.95611466e-02,
          4.05841917e-01, 4.05841917e-01, 1.98014066e-01, 4.05841917e-01,
          3.68366599e-01, 4.05841917e-01, 2.45571777e-01, 3.15356523e-01 ]
      - [ 0., 0., 0., 0., 0., 0., 0., 0., 0., 0., 3.13611507e-01,
          9.40834522e-01, 0., 0., 0., 0., 0., 0., 4.66943830e-01,
          2.35160023e-01, 4.66943830e-01, 0., 1.53683990e-01, 0.,
          4.66943830e-01, 2.10406378e-01, 4.66943830e-01, 0., 0., 0., 0.,
          0., 0., 0., 0., 0., 0., 3.14653188e-01, 9.43959653e-01, 0., 0.,
          0., 0., 0., 0., 1.92610517e-01, 3.02844882e-01, 5.01880467e-01,
          0., 5.01880467e-01, 0., 5.01880467e-01, 2.70966500e-01,
          1.92610517e-01, 0., 0., 0., 0., 0., 0., 0., 0., 0., 0., 0., 0.,
          0., 0., 0., 0., 0., 0., 0., 0., 0., 0., 9.86458302e-01, 0., 0.,
          0., 0. ]
      - [ 0., 0., 0., 0., 0., 0., 0., 0., 0., 0., 0., 0., 0., 0., 0., 0.,
          0., 0., 0., 0., 0., 0., 0., 0., 0., 0., 0., 0., 0., 0., 0., 0.,
          0., 0., 0., 0., 0., 3.10983747e-01, 9.32951272e-01, 0., 0., 0.,
          0., 0., 0., 5.11313558e-01, 1.61909625e-01, 4.85728890e-01, 0.,
          0., 0., 4.34599549e-01, 1.44866526e-01, 5.11313558e-01, 0., 0.,
          0., 0., 0., 0., 0., 0., 0., 0., 7.04615593e-01, 7.04615593e-01,
          0., 0., 0., 0., 0., 0., 2.08249047e-01, 4.58691418e-01,
          4.58691418e-01, 0., 0., 0., 4.58691418e-01, 3.32354397e-01,
          4.58691418e-01 ]
      - [ 0., 3.13255280e-01, 9.39765871e-01, 0., 0., 0., 0., 0., 0.,
          2.61348099e-01, 1.47596180e-01, 5.12613297e-01, 5.12613297e-01,
          0., 0., 3.68204974e-02, 3.39293599e-01, 5.12613297e-01,
          2.08733708e-01, 1.01217389e-01, 5.08403480e-01, 1.78229034e-01,
          0., 0., 3.65950614e-01, 5.08403480e-01, 5.08403480e-01,
          6.69971347e-01, 0., 0., 0., 0., 0., 0., 0., 6.69971347e-01,
          7.98840299e-02, 5.87187409e-01, 5.87187409e-01, 1.05906561e-01,
          0., 0., 7.99757615e-03, 2.07043931e-01, 4.93993819e-01,
          3.76501791e-02, 4.45816338e-01, 4.45816338e-01, 1.91923101e-02,
          0., 0., 4.45816338e-01, 4.45816338e-01, 4.45816338e-01,
          1.87072203e-01, 3.69056523e-01, 8.30300987e-01, 3.10031861e-01,
          0., 0., 0., 0., 1.87072203e-01, 1.38039529e-01, 5.99402368e-01,
          5.99402368e-01, 4.36839521e-01, 1.99814320e-01, 1.54791534e-01,
          6.45982800e-04, 5.07953437e-03, 4.06513661e-02, 6.76174928e-03,
          4.31909531e-01, 4.31909531e-01, 1.42275453e-01, 2.02947035e-01,
          4.31909531e-01, 4.31909531e-01, 4.31909531e-01, 3.84816751e-02 ]
      - [ 4.23518986e-01, 4.23518986e-01, 3.14527720e-01, 0., 0., 0.,
          4.23518986e-01, 4.23518986e-01, 4.23518986e-01, 4.97727066e-01,
          4.97727066e-01, 4.97727066e-01, 6.29686937e-02, 0., 0.,
          1.01693403e-02, 5.61575638e-03, 4.97727066e-01, 4.19371575e-01,
          4.29315299e-01, 4.33208704e-01, 2.75501609e-03, 0.,
          1.72848962e-02, 2.68649727e-01, 4.33208704e-01, 4.33208704e-01,
          3.93273622e-01, 3.27585101e-01, 4.08472449e-01, 4.06383932e-01,
          2.42522299e-01, 6.64738566e-02, 4.08472449e-01, 4.08472449e-01,
          7.07828552e-02, 4.60088775e-02, 6.63363814e-01, 6.63363814e-01,
          3.16315264e-01, 9.27313268e-02, 3.67102167e-03, 3.12407427e-02,
          1.12769427e-02, 3.72348726e-02, 3.65723111e-02, 4.13178295e-01,
          4.13178295e-01, 7.75052980e-02, 1.50056615e-01, 4.13178295e-01,
          4.13178295e-01, 4.13178295e-01, 3.35304707e-01, 0.,
          1.56481430e-01, 4.32769984e-01, 4.32769984e-01, 4.32769984e-01,
          3.97425979e-01, 4.32769984e-01, 2.53147602e-01, 0.,
          1.49382045e-02, 4.98295844e-01, 4.98295844e-01, 4.98295844e-01,
          4.98295844e-01, 3.58244181e-02, 1.70824211e-02, 5.47482213e-03,
          0., 3.25778645e-04, 1.93248078e-01, 4.55087095e-01,
          3.56867611e-01, 4.55087095e-01, 4.55087095e-01, 4.55087095e-01,
          4.83525246e-02, 0. ]
      - [ 2.97530144e-01, 6.96666241e-01, 6.03861153e-01, 0.,
          2.26076007e-01, 0., 0., 0., 0., 4.13604647e-01, 4.13604647e-01,
          4.13604647e-01, 4.13604647e-01, 4.13604647e-01, 3.70660216e-01,
          8.59320909e-03, 0., 5.53304330e-02, 3.47761959e-01,
          3.47761959e-01, 3.47761959e-01, 3.47761959e-01, 3.12483609e-01,
          2.28715226e-01, 3.47761959e-01, 3.47761959e-01, 3.47761959e-01,
          1.04331806e-01, 3.79129469e-01, 6.16259933e-01, 0.,
          6.71463847e-01, 0., 0., 0., 0., 3.62303555e-01, 4.70183045e-01,
          4.70183045e-01, 7.80875310e-02, 4.70183045e-01, 4.21353936e-01,
          1.10875480e-01, 1.02130743e-02, 6.92025349e-02, 3.26856524e-01,
          4.13935959e-01, 4.13935959e-01, 1.68332770e-01, 4.13935959e-01,
          4.13935959e-01, 4.13935959e-01, 6.30082339e-02, 3.00500868e-03,
          0., 0., 0., 0., 0., 0., 0., 0., 0., 3.63943428e-01,
          4.47628975e-01, 4.47628975e-01, 0., 4.47628975e-01,
          4.47628975e-01, 2.39867881e-01, 2.51171216e-02, 5.84782362e-02,
          2.23841175e-01, 4.34610814e-01, 3.92282873e-01, 0.,
          4.47896719e-01, 4.47896719e-01, 4.47896719e-01, 2.02623773e-02,
          2.00935956e-02 ]
      - [ 0., 0., 0., 0., 0., 0., 0., 0., 0., 3.73911828e-01,
          3.30043465e-01, 5.63793659e-01, 3.01071942e-01, 0., 0., 0.,
          1.38782009e-01, 5.63793659e-01, 1.71620518e-01, 1.49306267e-01,
          4.82869357e-01, 1.03826590e-01, 0., 0., 4.82869357e-01,
          4.82869357e-01, 4.82869357e-01, 0., 0., 0., 0., 0., 0., 0., 0.,
          0., 4.28989716e-02, 6.76376760e-01, 6.76376760e-01,
          1.31658077e-01, 2.08342681e-03, 0., 0., 4.86573316e-02,
          2.38182038e-01, 3.98750491e-02, 4.30313945e-01, 4.92808491e-01,
          6.19707443e-02, 2.64553423e-03, 4.58539762e-02, 4.92808491e-01,
          4.92808491e-01, 2.71638542e-01, 0., 0., 0., 0., 0., 0., 0., 0.,
          0., 0., 5.49676061e-01, 5.49676061e-01, 2.77917892e-01,
          4.30556923e-01, 3.57219487e-01, 0., 0., 0., 0., 4.29462671e-01,
          4.29462671e-01, 2.12958366e-01, 3.19858819e-01, 4.29462671e-01,
          4.29462671e-01, 3.32107365e-01, 1.01043168e-03 ]
      - [ 0., 3.78100812e-01, 9.20789361e-01, 0., 0., 0., 0., 0., 0.,
          2.53904670e-01, 5.45083940e-01, 5.45083940e-01, 5.45083940e-01,
          1.31544948e-01, 0., 0., 0., 1.46408588e-01, 1.51377216e-01,
          4.36394185e-01, 4.36394185e-01, 1.26138896e-01, 8.94348789e-03,
          6.73453286e-02, 4.36394185e-01, 4.36394185e-01, 4.36394185e-01,
          0., 3.06964785e-01, 9.20894384e-01, 0., 0., 0., 0., 0., 0., 0.,
          6.75162852e-01, 6.75162852e-01, 1.48529962e-01, 2.37761721e-01,
          5.45734055e-02, 0., 0., 0., 0., 4.71477985e-01, 4.71477985e-01,
          3.17506194e-02, 2.82706767e-01, 4.71477985e-01, 4.71477985e-01,
          1.58280700e-01, 1.18618160e-02, 0., 0., 0., 0., 0., 0., 0., 0.,
          0., 0., 4.58333403e-01, 4.58333403e-01, 3.93883169e-01,
          4.58333403e-01, 4.58333403e-01, 0., 0., 0., 0., 2.96377629e-01,
          5.25698781e-01, 1.23022102e-01, 5.25698781e-01, 5.25698781e-01,
          2.49823123e-01, 1.69286672e-02, 0. ]
      - [ 0., 0., 0., 0., 0., 0., 0., 0., 0., 5.09576738e-01,
          2.38935888e-01, 5.09576738e-01, 3.73470008e-01, 0., 0., 0.,
          1.39051780e-01, 5.09576738e-01, 5.15727401e-01, 8.26726407e-02,
          3.88518155e-01, 1.85592607e-01, 0., 0., 6.85519278e-02,
          5.15727401e-01, 5.15727401e-01, 0., 3.01260442e-01,
          9.03781295e-01, 0., 0., 0., 0., 0., 0., 4.70170885e-01,
          4.78933811e-01, 4.78933811e-01, 4.78933811e-01, 0., 0., 0.,
          4.70093638e-02, 2.89504945e-01, 1.34851158e-01, 4.27739769e-01,
          4.27739769e-01, 2.38578320e-01, 0., 7.62647018e-02,
          4.27739769e-01, 4.27739769e-01, 4.27739769e-01, 0.,
          3.13255280e-01, 9.39765871e-01, 0., 0., 0., 0., 0., 0.,
          3.16423833e-01, 4.91324961e-01, 4.91324961e-01, 4.91324961e-01,
          4.13066864e-01, 0., 0., 0., 1.19922888e-02, 6.38794973e-02,
          3.83135378e-01, 3.83135378e-01, 3.83135378e-01, 3.83135378e-01,
          3.83135378e-01, 3.83135378e-01, 3.06318104e-01, 1.32305011e-01 ]
      - [ 0., 6.89412534e-01, 6.89412534e-01, 1.86707020e-01,
          8.76301154e-02, 0., 0., 0., 0., 4.44416672e-01, 4.44416672e-01,
          4.44416672e-01, 4.44416672e-01, 8.85578766e-02, 1.36903515e-02,
          0., 0., 4.44416672e-01, 2.37649277e-01, 3.99397045e-01,
          4.52142686e-01, 2.96939433e-01, 4.36402485e-03, 2.93030229e-04,
          2.79280007e-01, 4.52142686e-01, 4.52142686e-01, 0.,
          6.73474848e-01, 6.73474848e-01, 1.73371807e-01, 2.36816794e-01,
          0., 0., 0., 0., 1.50091127e-01, 5.60076475e-01, 5.60076475e-01,
          5.44127345e-01, 2.16745049e-01, 2.44012251e-02, 0., 0.,
          2.93241236e-02, 2.91532632e-02, 4.30752903e-01, 4.30752903e-01,
          1.71608314e-01, 1.46299779e-01, 4.30752903e-01, 4.30752903e-01,
          4.30752903e-01, 1.27491221e-01, 0., 6.75388277e-01,
          6.75388277e-01, 0., 2.84533024e-01, 0., 0., 0., 0.,
          1.00966878e-01, 4.91797656e-01, 4.91797656e-01, 4.91797656e-01,
          4.91797656e-01, 1.31915003e-01, 0., 0., 5.69457840e-03,
          1.36719262e-02, 4.50867355e-01, 3.89251739e-01, 2.09736183e-01,
          4.63374048e-01, 4.63374048e-01, 4.08519119e-01, 8.83471873e-03,
          4.11362649e-04 ]
      - [ 0., 0., 0., 0., 0., 0., 0., 0., 0., 4.61369723e-01,
          4.61369723e-01, 4.61369723e-01, 3.79399180e-01, 0., 0., 0., 0.,
          4.61369723e-01, 3.51081103e-01, 3.78146499e-01, 4.55134839e-01,
          3.08710337e-01, 0., 0., 1.11605868e-01, 4.55134839e-01,
          4.55134839e-01, 0., 0., 0., 0., 0., 0., 0., 0., 0.,
          4.51323956e-01, 4.09907103e-01, 5.41146696e-01, 5.41146696e-01,
          0., 0., 0., 0., 1.92871064e-01, 7.01496899e-02, 4.12914008e-01,
          4.12914008e-01, 4.12914008e-01, 0., 5.57530075e-02,
          3.67907315e-01, 4.12914008e-01, 4.12914008e-01, 0., 0., 0., 0.,
          0., 0., 0., 0., 0., 4.43156958e-01, 4.43156958e-01,
          4.43156958e-01, 4.43156958e-01, 4.43156958e-01, 0., 0., 0.,
          1.16760276e-01, 2.74017304e-01, 4.05709833e-01, 4.05709833e-01,
          2.37861559e-01, 4.05709833e-01, 4.05709833e-01, 4.05709833e-01,
          2.00862899e-01, 3.05810422e-02 ]
      - [ 7.84247667e-02, 6.76479280e-01, 6.76479280e-01, 1.61055759e-01,
          1.99394807e-01, 0., 0., 0., 7.84247667e-02, 3.20856988e-01,
          4.60422516e-01, 4.60422516e-01, 4.60422516e-01, 1.24411471e-02,
          0., 0., 2.10574225e-01, 4.60422516e-01, 1.08841546e-01,
          2.70850331e-01, 4.99391377e-01, 1.21996462e-01, 0., 0.,
          3.83076608e-01, 4.99391377e-01, 4.99391377e-01, 0.,
          1.06033668e-01, 8.29598546e-01, 1.36761054e-01, 4.97726649e-01,
          0., 0., 0., 0., 1.62452050e-02, 6.71097755e-01, 6.71097755e-01,
          2.94472367e-01, 2.89019011e-03, 5.68990712e-04, 2.12807511e-03,
          2.45799068e-02, 7.04319552e-02, 7.81276170e-03, 4.81410593e-01,
          4.81410593e-01, 6.93091825e-02, 0., 1.99943483e-01,
          4.81410593e-01, 4.81410593e-01, 1.52724430e-01, 3.91152263e-01,
          6.27093434e-01, 6.27093434e-01, 2.22234741e-01, 6.97018877e-02,
          0., 0., 0., 0., 6.91084191e-02, 5.31447172e-01, 5.31447172e-01,
          4.77129608e-01, 3.37156594e-01, 2.88982749e-01, 1.29878437e-02,
          0., 6.11638790e-03, 3.78138456e-03, 4.73663658e-01,
          4.73663658e-01, 1.35059103e-01, 2.51180768e-01, 4.73663658e-01,
          4.73663658e-01, 1.28424987e-01, 1.86396501e-04 ]
      - [ 1.46265522e-01, 6.76189363e-01, 7.08484530e-01, 0.,
          1.11138739e-01, 0., 0., 0., 0., 4.33108918e-02, 4.45776910e-01,
          4.45776910e-01, 4.45776910e-01, 4.45776910e-01, 4.45776910e-01,
          9.28690191e-03, 0., 0., 3.17915268e-02, 2.97593027e-01,
          4.30898577e-01, 4.30898577e-01, 2.10058883e-01, 4.30898577e-01,
          4.30898577e-01, 3.45188141e-01, 1.22294119e-02, 8.72545838e-02,
          3.84793848e-01, 7.18552291e-01, 0., 5.61557353e-01, 0., 0., 0.,
          0., 5.14621511e-02, 5.37198126e-01, 5.37198126e-01,
          1.44452140e-01, 5.37198126e-01, 3.23902160e-01, 2.15032902e-02,
          0., 0., 1.28959706e-02, 3.11365426e-01, 4.60324347e-01,
          1.74342632e-01, 4.60324347e-01, 4.60324347e-01, 4.60324347e-01,
          1.42470643e-01, 0., 0., 0., 0., 0., 0., 0., 0., 0., 0.,
          6.72954768e-02, 4.06266123e-01, 5.80359340e-01, 0.,
          6.54261529e-01, 2.41939902e-01, 2.18451470e-02, 0., 0.,
          6.45796359e-02, 2.86057264e-01, 2.45498285e-01, 0.,
          5.67774475e-01, 5.67774475e-01, 4.33540225e-01, 1.23971798e-01,
          0. ]
      - [ 0., 0., 0., 0., 0., 0., 0., 0., 0., 0., 3.14155549e-01,
          9.42466676e-01, 0., 0., 0., 0., 0., 0., 4.62585032e-01,
          3.28063011e-01, 5.53843677e-01, 5.44607826e-02, 0., 0.,
          8.79623666e-02, 2.20612645e-01, 5.53843677e-01, 0., 0., 0., 0.,
          0., 0., 0., 0., 0., 0., 5.18078983e-01, 8.50357950e-01, 0., 0.,
          0., 0., 0., 0., 5.27433753e-02, 4.13638264e-01, 4.13638264e-01,
          5.48642240e-02, 3.24292183e-01, 3.96893054e-01, 4.13638264e-01,
          2.07364425e-01, 4.13638264e-01, 0., 0., 0., 0., 0., 0., 0., 0.,
          0., 0., 3.14381778e-01, 9.43145275e-01, 0., 0., 0., 0., 0., 0.,
          0., 4.76639539e-01, 4.91523176e-01, 6.78640231e-03,
          4.91523176e-01, 4.91523176e-01, 2.01870427e-01, 4.81940657e-02,
          0. ]
      - [ 0., 0., 0., 0., 0., 0., 0., 0., 0., 0., 0., 0., 0., 0., 0., 0.,
          0., 0., 0., 0., 0., 0., 0., 0., 0., 0., 0., 0., 0., 0., 0., 0.,
          0., 0., 0., 0., 0., 3.14610958e-01, 9.43832755e-01, 0., 0., 0.,
          0., 0., 0., 4.35081571e-01, 3.07625920e-01, 4.35081571e-01, 0.,
          0., 0., 4.35081571e-01, 3.79257441e-01, 4.35081571e-01, 0., 0.,
          0., 0., 0., 0., 0., 0., 0., 0., 4.99904722e-01, 8.61105561e-01,
          0., 0., 0., 0., 0., 0., 4.77412529e-02, 4.28938150e-01,
          4.28938150e-01, 0., 3.22193682e-01, 3.63438159e-01,
          4.28938150e-01, 4.28231388e-01, 1.48976743e-01 ]
      - [ 0., 0., 0., 0., 0., 0., 0., 0., 0., 2.18569160e-01,
          5.21247804e-01, 5.21247804e-01, 5.21247804e-01, 7.55334869e-02,
          0., 0., 0., 3.55272621e-01, 2.79875875e-01, 3.22917551e-01,
          4.06268269e-01, 3.65977824e-01, 1.13760874e-01, 7.89830685e-02,
          4.06268269e-01, 4.06268269e-01, 4.06268269e-01, 0., 0., 0., 0.,
          0., 0., 0., 0., 0., 1.44490302e-01, 6.51462972e-01,
          6.51462972e-01, 2.52309322e-01, 1.79441452e-01, 1.66408405e-01,
          1.61163434e-02, 0., 0., 5.83115593e-02, 4.22807217e-01,
          4.22807217e-01, 2.17225194e-01, 4.22807217e-01, 4.22807217e-01,
          4.22807217e-01, 2.19567895e-01, 5.61206192e-02, 0., 0., 0., 0.,
          0., 0., 0., 0., 0., 9.37114060e-02, 4.95871633e-01,
          4.95871633e-01, 4.22534794e-02, 4.95871633e-01, 4.95871633e-01,
          3.04201618e-02, 0., 0., 8.64747763e-02, 4.90601271e-01,
          2.90789127e-01, 1.14617325e-01, 5.29125869e-01, 5.29125869e-01,
          2.92085290e-01, 5.99234104e-02, 0. ]
      - [ 0., 0., 0., 0., 0., 0., 0., 0., 0., 5.01162708e-01,
          2.52757251e-01, 5.01162708e-01, 2.83555448e-01, 0., 0.,
          9.93969291e-02, 2.95521408e-01, 5.01162708e-01, 4.73111480e-01,
          8.66136476e-02, 2.81786323e-01, 1.53953597e-01, 0., 0.,
          4.61696714e-01, 4.73111480e-01, 4.73111480e-01, 0., 0., 0., 0.,
          0., 0., 0., 0., 0., 4.11461145e-01, 4.62384611e-01,
          4.63775933e-01, 3.34467918e-01, 2.22624421e-01, 0.,
          7.71762952e-02, 1.21264435e-01, 4.63775933e-01, 4.21296746e-01,
          2.00537652e-01, 4.21296746e-01, 2.11947322e-01, 1.52314469e-01,
          0., 4.21296746e-01, 4.21296746e-01, 4.21296746e-01, 0., 0., 0.,
          0., 0., 0., 0., 0., 0., 1.08616747e-01, 6.85222745e-01,
          6.85222745e-01, 1.75705671e-01, 7.39432424e-02, 1.43555570e-02,
          7.23323040e-03, 2.41107657e-03, 7.54803792e-02, 7.44811743e-02,
          4.82730061e-01, 4.82730061e-01, 1.90077364e-01, 7.63924867e-02,
          7.71165043e-02, 4.82730061e-01, 4.82730061e-01, 9.80091020e-02 ]
      - [ 0., 0., 0., 0., 0., 0., 0., 0., 0., 2.55357027e-01,
          2.77295679e-01, 5.32747388e-01, 5.32747388e-01, 1.77364927e-02,
          0., 0., 2.83853486e-02, 5.32747388e-01, 1.23758592e-01,
          4.50975299e-02, 4.89994764e-01, 4.89994764e-01, 6.92200335e-03,
          0., 1.31638512e-01, 4.89994764e-01, 4.89994764e-01, 0., 0., 0.,
          0., 0., 0., 0., 0., 0., 1.40444301e-02, 4.25933123e-01,
          6.23313606e-01, 6.23313606e-01, 6.48457035e-02, 0., 0.,
          4.46216390e-03, 1.75772130e-01, 2.99223512e-03, 4.01670426e-01,
          4.01670426e-01, 4.01670426e-01, 2.58536339e-02, 1.65151954e-01,
          4.01670426e-01, 4.01670426e-01, 4.01670426e-01, 0.,
          3.12945694e-01, 9.38837111e-01, 0., 0., 0., 0., 0., 0.,
          4.13924009e-01, 4.62712675e-01, 4.62712675e-01, 3.67306113e-01,
          2.93138742e-01, 3.47881839e-02, 0., 2.54800878e-02,
          4.16095495e-01, 7.99519941e-02, 4.62959290e-01, 4.62959290e-01,
          9.85138305e-03, 3.25422913e-01, 4.62959290e-01, 4.62959290e-01,
          1.58193663e-01, 2.52171531e-02 ]
      - [ 2.21230358e-01, 3.12400430e-01, 8.74052823e-01, 0.,
          1.78410605e-01, 0., 0., 0., 2.21230358e-01, 4.63905007e-01,
          3.49550545e-01, 4.63905007e-01, 4.63905007e-01, 1.10820509e-01,
          0., 0., 8.24969448e-03, 4.63905007e-01, 4.99138683e-01,
          3.72913145e-02, 4.31782424e-01, 2.32494369e-01, 7.43629411e-03,
          0., 7.52388909e-02, 4.99138683e-01, 4.99138683e-01,
          4.24486548e-02, 5.69303036e-01, 7.61980474e-01, 0.,
          2.89949447e-01, 0., 0., 0., 4.24486548e-02, 4.69444096e-01,
          4.69444096e-01, 4.69444096e-01, 4.69444096e-01, 2.29760557e-01,
          7.07833655e-03, 0., 7.32317974e-04, 2.46899977e-01,
          2.37296969e-01, 3.71984333e-01, 3.71984333e-01, 3.71984333e-01,
          1.87685087e-01, 2.72972673e-01, 3.71984333e-01, 3.71984333e-01,
          3.71984333e-01, 0., 6.69261575e-01, 6.69261575e-01, 0.,
          3.12244356e-01, 0., 0., 0., 0., 3.04396570e-01, 4.72412348e-01,
          4.72412348e-01, 4.72412348e-01, 4.72412348e-01, 9.95029509e-02,
          0., 0., 5.45800291e-03, 5.94370998e-02, 4.36598301e-01,
          3.54333252e-01, 3.05245847e-01, 4.36598301e-01, 4.36598301e-01,
          4.36598301e-01, 1.03104725e-01, 1.66173615e-02 ]
      - [ 0., 3.13457966e-01, 9.40373838e-01, 0., 0., 0., 0., 0., 0., 0.,
          4.98753130e-01, 4.98753130e-01, 0., 4.98753130e-01,
          4.98753130e-01, 0., 0., 0., 3.83770198e-01, 3.83770198e-01,
          3.83770198e-01, 5.77871408e-03, 3.83770198e-01, 3.83770198e-01,
          3.83770198e-01, 1.31416738e-01, 3.08520436e-01, 0.,
          2.87214905e-01, 8.61644685e-01, 0., 0., 0., 0., 0., 0.,
          5.39056472e-02, 6.44735932e-01, 6.44735932e-01, 0.,
          3.51516604e-01, 1.88963085e-01, 4.18692222e-03, 0., 0.,
          3.64532471e-01, 4.13092375e-01, 4.13092375e-01, 6.07480444e-02,
          4.13092375e-01, 4.13092375e-01, 4.13092375e-01, 7.42247030e-02,
          2.37338357e-02, 0., 0., 0., 0., 0., 0., 0., 0., 0.,
          1.15427926e-01, 5.37363112e-01, 5.37363112e-01, 0.,
          5.37363112e-01, 3.38139236e-01, 2.63549574e-02, 0., 0.,
          9.29178968e-02, 5.18690646e-01, 3.39772731e-01, 6.00860342e-02,
          5.18690646e-01, 5.18690646e-01, 2.44032636e-01, 2.14091428e-02,
          0. ]
      - [ 0., 0., 0., 0., 0., 0., 0., 0., 0., 5.04327714e-01,
          7.33415186e-01, 2.52778172e-01, 0., 0., 0., 0., 7.27945790e-02,
          3.60893041e-01, 4.88287121e-01, 4.50656950e-01, 7.12406635e-02,
          0., 0., 0., 2.67737240e-01, 4.88287121e-01, 4.88287121e-01, 0.,
          0., 0., 0., 0., 0., 0., 0., 0., 1.74003288e-01, 6.19045854e-01,
          6.19045854e-01, 4.08139825e-01, 0., 0., 0., 9.12552252e-02,
          1.48999631e-01, 1.51224881e-01, 4.33051109e-01, 4.33051109e-01,
          1.86750397e-01, 0., 1.62213240e-02, 4.33051109e-01,
          4.33051109e-01, 4.33051109e-01, 0., 0., 0., 0., 0., 0., 0., 0.,
          0., 0., 5.82777441e-01, 5.82777441e-01, 3.41307223e-01,
          4.28948760e-01, 1.20141551e-01, 0., 0., 0., 0., 3.97263467e-01,
          3.97263467e-01, 2.21341372e-01, 3.97263467e-01, 3.97263467e-01,
          3.97263467e-01, 3.97263467e-01, 1.13968290e-02 ]
      - [ 0., 0., 0., 0., 0., 0., 0., 0., 0., 4.81251508e-01,
          1.82391956e-01, 4.87725109e-01, 4.87725109e-01, 9.87322107e-02,
          0., 0., 8.29657838e-02, 4.87725109e-01, 2.74500012e-01,
          1.48384515e-02, 4.26053733e-01, 4.26053733e-01, 1.35288447e-01,
          0., 4.19265360e-01, 4.26053733e-01, 4.26053733e-01, 0., 0., 0.,
          0., 0., 0., 0., 0., 0., 9.63315144e-02, 1.42507896e-01,
          6.80710435e-01, 6.80710435e-01, 5.46025448e-02, 0., 0.,
          1.56085361e-02, 1.83460563e-01, 1.32816225e-01, 4.89207245e-02,
          4.03181553e-01, 4.03181553e-01, 4.03181553e-01, 2.46324316e-02,
          4.03181553e-01, 4.03181553e-01, 4.03181553e-01, 0.,
          3.12945694e-01, 9.38837111e-01, 0., 0., 0., 0., 0., 0.,
          4.80862856e-01, 4.80862856e-01, 4.80862856e-01, 4.80862856e-01,
          1.29314318e-01, 0., 0., 0., 2.31427476e-01, 3.72347534e-01,
          3.72347534e-01, 2.97517002e-01, 3.28528970e-01, 1.97466120e-01,
          2.60050207e-01, 3.72347534e-01, 3.72347534e-01, 3.72347534e-01 ]
      - [ 0., 3.14154208e-01, 9.42462564e-01, 0., 0., 0., 0., 0., 0.,
          4.54984665e-01, 3.89816105e-01, 4.54984665e-01, 4.54984665e-01,
          1.49575397e-02, 0., 0., 1.23412766e-01, 4.54984665e-01,
          3.45030129e-01, 3.74939628e-02, 4.77081656e-01, 3.45088989e-01,
          2.18626950e-03, 0., 3.93335707e-02, 5.12923241e-01,
          5.12923241e-01, 0., 7.04041243e-01, 7.02522755e-01, 0., 0., 0.,
          0., 0., 0., 3.51565212e-01, 5.05456865e-01, 5.05456865e-01,
          5.05456865e-01, 1.48433566e-01, 1.13293966e-02, 0.,
          5.48309200e-02, 2.82359123e-01, 1.67176902e-01, 3.76375288e-01,
          3.76375288e-01, 2.67613262e-01, 2.16159165e-01, 3.76375288e-01,
          3.76375288e-01, 3.76375288e-01, 3.76375288e-01, 0.,
          6.64755285e-01, 6.64755285e-01, 0., 3.31004739e-01, 0., 0., 0.,
          0., 1.88763276e-01, 4.86306965e-01, 4.86306965e-01,
          4.86306965e-01, 4.86306965e-01, 1.16090082e-01, 0., 0.,
          7.52024166e-03, 3.46978717e-02, 4.49204177e-01, 3.74506772e-01,
          2.33771995e-01, 4.49204177e-01, 4.49204177e-01, 4.27901745e-01,
          1.03858724e-01, 1.28359981e-02 ]
      - [ 1.28824964e-01, 3.72383505e-01, 7.61317730e-01, 4.90851730e-01,
          0., 0., 0., 0., 1.28824964e-01, 4.28524196e-01, 1.24275476e-01,
          5.13334692e-01, 5.13334692e-01, 5.79669029e-02, 0., 0.,
          4.35663648e-02, 5.13334692e-01, 1.44066423e-01, 2.75024236e-03,
          4.89135504e-01, 4.89135504e-01, 6.90006046e-03, 0.,
          1.31491363e-01, 4.89135504e-01, 4.89135504e-01, 5.34001291e-01,
          1.80000737e-01, 5.69889188e-01, 2.09666118e-01, 0., 0., 0., 0.,
          5.34001291e-01, 1.03393376e-01, 1.15698241e-02, 6.49492979e-01,
          6.49492979e-01, 1.21772364e-01, 0., 0., 4.02908288e-02,
          3.50082010e-01, 4.50240914e-03, 1.00654535e-01, 4.38812643e-01,
          4.38812643e-01, 1.50551736e-01, 4.09306912e-03, 4.38812643e-01,
          4.38812643e-01, 4.38812643e-01, 2.23698899e-01, 3.23720187e-01,
          8.10279012e-01, 3.61226261e-01, 0., 0., 0., 0., 2.23698899e-01,
          4.65619147e-01, 4.65619147e-01, 4.65619147e-01, 3.57211411e-01,
          0., 0., 0., 2.33352073e-02, 4.65619147e-01, 4.24239725e-01,
          4.24239725e-01, 4.24239725e-01, 1.72082782e-01, 3.70537378e-02,
          1.60080403e-01, 4.24239725e-01, 4.00312752e-01, 2.42864683e-01 ]
      - [ 1.56397507e-01, 6.90375268e-01, 6.90375268e-01, 1.10058874e-01,
          5.74378036e-02, 0., 0., 0., 0., 4.32554305e-01, 4.32554305e-01,
          4.32554305e-01, 4.32554305e-01, 2.94049084e-01, 1.06486650e-02,
          0., 0., 4.00859118e-01, 4.18493181e-01, 2.09919468e-01,
          4.18493181e-01, 4.18493181e-01, 4.15292196e-02, 1.69650081e-03,
          2.72659361e-01, 4.18493181e-01, 4.18493181e-01, 3.65357138e-02,
          5.81632555e-01, 7.03074336e-01, 2.17768565e-01, 3.34086359e-01,
          0., 0., 0., 0., 2.34782875e-01, 4.80623394e-01, 4.80623394e-01,
          4.80623394e-01, 4.80623394e-01, 1.18671931e-01, 0., 0.,
          4.46994267e-02, 8.27094018e-02, 3.95096779e-01, 3.95096779e-01,
          3.81244242e-01, 1.34773239e-01, 3.95096779e-01, 3.95096779e-01,
          3.95096779e-01, 2.12588236e-01, 0., 3.13255280e-01,
          9.39765871e-01, 0., 0., 0., 0., 0., 0., 1.30661651e-01,
          4.85552996e-01, 4.85552996e-01, 1.86929882e-01, 4.85552996e-01,
          4.85552996e-01, 0., 0., 9.40090790e-03, 2.13106871e-02,
          5.29530585e-01, 3.16240311e-01, 5.54402247e-02, 5.29530585e-01,
          5.29530585e-01, 2.23386094e-01, 8.14866368e-03, 6.53436524e-04 ]
      - [ 0., 3.13255280e-01, 9.39765871e-01, 0., 0., 0., 0., 0., 0.,
          4.19290066e-01, 4.51800436e-01, 4.51800436e-01, 4.51800436e-01,
          4.51800436e-01, 0., 0., 0., 5.64658716e-02, 2.79298574e-01,
          2.45735079e-01, 4.13391352e-01, 4.13391352e-01, 5.46191856e-02,
          5.63085079e-03, 4.13391352e-01, 4.13391352e-01, 4.13391352e-01,
          0., 0., 0., 0., 0., 0., 0., 0., 0., 1.96552336e-01,
          6.26424491e-01, 6.26424491e-01, 3.40628356e-01, 2.31415644e-01,
          0., 0., 0., 2.67703142e-02, 1.36806183e-02, 4.69130844e-01,
          4.69130844e-01, 2.16847211e-01, 1.23678289e-01, 4.69130844e-01,
          4.69130844e-01, 2.29069874e-01, 1.17320189e-04, 0., 0., 0., 0.,
          0., 0., 0., 0., 0., 2.02311352e-01, 5.22816598e-01,
          5.22816598e-01, 2.09394038e-01, 5.22816598e-01, 2.96484023e-01,
          0., 0., 4.57008705e-02, 7.53965154e-02, 5.12938976e-01,
          2.96664089e-01, 1.41686678e-01, 5.12938976e-01, 5.12938976e-01,
          3.02696377e-01, 1.26748020e-02, 1.71268987e-03 ]
      - [ 1.20799869e-01, 6.71386898e-01, 6.71386898e-01, 2.00199738e-01,
          1.50038779e-01, 0., 0., 0., 1.20799869e-01, 4.43907827e-01,
          4.43907827e-01, 4.43907827e-01, 4.43907827e-01, 7.19533861e-02,
          0., 0., 7.15385675e-02, 4.43907827e-01, 2.20906928e-01,
          1.18472718e-01, 4.96381998e-01, 4.32153881e-01, 1.13951387e-02,
          0., 7.83247352e-02, 4.96381998e-01, 4.96381998e-01,
          4.66655076e-01, 2.89131701e-01, 5.57997346e-01, 1.18994653e-01,
          2.35118747e-01, 0., 0., 3.00207473e-02, 5.57997346e-01,
          2.22419173e-01, 5.20641088e-01, 5.20641088e-01, 5.20641088e-01,
          1.21216096e-01, 0., 0., 2.50432920e-02, 3.41772228e-01,
          2.12012809e-02, 4.40402031e-01, 4.40402031e-01, 2.75933743e-01,
          6.47953711e-03, 4.45639603e-02, 4.40402031e-01, 4.40402031e-01,
          3.75723511e-01, 1.58044711e-01, 3.25217158e-01, 6.48891866e-01,
          2.91768342e-01, 5.10318339e-01, 0., 0., 2.95901187e-02,
          3.08686614e-01, 4.37236756e-01, 4.37236756e-01, 4.37236756e-01,
          4.37236756e-01, 4.37236756e-01, 4.15417999e-02, 0.,
          3.61103192e-03, 1.94971308e-01, 9.06728730e-02, 4.25906181e-01,
          4.25906181e-01, 1.51062623e-01, 4.25906181e-01, 4.25906181e-01,
          4.25906181e-01, 2.40156159e-01, 6.98074326e-03 ]
      - [ 0., 3.86449546e-01, 9.17335510e-01, 0., 0., 0., 0., 0., 0.,
          5.84931187e-02, 4.95746762e-01, 4.95746762e-01, 9.12969187e-02,
          4.95746762e-01, 4.95746762e-01, 1.52593302e-02, 0., 0.,
          2.23184884e-01, 4.06471252e-01, 4.06471252e-01, 4.06471252e-01,
          4.06471252e-01, 2.77665406e-01, 4.06471252e-01, 2.06061408e-01,
          2.17776112e-02, 0., 2.87214905e-01, 8.61644685e-01, 0., 0., 0.,
          0., 0., 0., 3.02021742e-01, 5.54654539e-01, 5.54654539e-01, 0.,
          4.87934411e-01, 2.20165864e-01, 3.70537415e-02, 5.89873735e-03,
          0., 3.80112827e-01, 4.09418583e-01, 4.09418583e-01,
          4.05326905e-03, 4.09418583e-01, 4.09418583e-01, 4.09418583e-01,
          1.13822103e-01, 1.82862543e-02, 0., 0., 0., 0., 0., 0., 0., 0.,
          0., 8.49626288e-02, 5.22307217e-01, 5.63503921e-01, 0.,
          5.63503921e-01, 2.49268755e-01, 1.26688376e-01, 3.30360681e-02,
          0., 8.24433938e-02, 3.21294427e-01, 3.67576540e-01, 0.,
          4.92011636e-01, 4.92011636e-01, 4.92011636e-01, 1.54013380e-01,
          0. ]
      - [ 0., 0., 0., 0., 0., 0., 0., 0., 0., 3.71156514e-01,
          2.54302710e-01, 5.18825591e-01, 4.90346253e-01, 0., 0., 0.,
          1.16584450e-01, 5.18825591e-01, 3.05110484e-01, 3.12043242e-02,
          5.26284695e-01, 2.62926579e-01, 0., 0., 2.49186680e-02,
          5.26284695e-01, 5.26284695e-01, 0., 0., 0., 0., 0., 0., 0., 0.,
          0., 1.38102636e-01, 5.35744190e-01, 5.35744190e-01,
          5.35744190e-01, 0., 0., 0., 2.50012074e-02, 3.37471277e-01,
          6.34573624e-02, 4.23287481e-01, 4.23287481e-01, 2.78295636e-01,
          0., 1.35774761e-01, 4.23287481e-01, 4.23287481e-01,
          4.23287481e-01, 0., 0., 0., 0., 0., 0., 0., 0., 0.,
          1.02246597e-01, 5.46710014e-01, 5.46710014e-01, 5.46710014e-01,
          2.95322955e-01, 1.39590204e-02, 0., 0., 0., 1.31465802e-02,
          4.23734337e-01, 4.23734337e-01, 2.47750103e-01, 4.23734337e-01,
          4.23734337e-01, 4.23734337e-01, 1.85986176e-01, 4.32371125e-02 ]
      - [ 0., 0., 0., 0., 0., 0., 0., 0., 0., 0., 5.36418140e-01,
          5.36418140e-01, 4.12151903e-01, 4.83585745e-01, 1.24217346e-01,
          0., 0., 0., 0., 3.97545666e-01, 3.97545666e-01, 3.52778018e-01,
          3.97545666e-01, 3.97545666e-01, 3.97545666e-01, 2.83769399e-01,
          2.89567877e-02, 0., 0., 0., 0., 0., 0., 0., 0., 0., 0.,
          6.42916977e-01, 6.42916977e-01, 0., 4.08529967e-01, 0., 0., 0.,
          0., 0., 4.42770004e-01, 4.42770004e-01, 8.61160159e-02,
          4.42770004e-01, 4.42770004e-01, 4.42770004e-01, 8.90780538e-02,
          0., 0., 0., 0., 0., 0., 0., 0., 0., 0., 0., 1.33273497e-01,
          3.99820477e-01, 0., 8.83252382e-01, 0., 0., 0., 0., 0.,
          4.89551313e-02, 1.46865398e-01, 0., 9.53740180e-01, 0.,
          2.26046756e-01, 7.53489211e-02, 0. ]
      - [ 0., 0., 0., 0., 0., 0., 0., 0., 0., 0., 0., 0., 0., 0., 0., 0.,
          0., 0., 4.72399861e-01, 2.77935237e-01, 4.72399861e-01, 0., 0.,
          0., 4.72399861e-01, 1.59333482e-01, 4.72399861e-01, 0., 0., 0.,
          0., 0., 0., 0., 0., 0., 0., 0., 0., 0., 0., 0., 0., 0., 0.,
          1.39971480e-01, 4.36138064e-01, 4.84165967e-01, 0.,
          4.84165967e-01, 0., 4.84165967e-01, 2.50027299e-01,
          1.39971480e-01, 0., 0., 0., 0., 0., 0., 0., 0., 0., 0., 0., 0.,
          0., 0., 0., 0., 0., 0., 0., 8.36106092e-02, 2.50831813e-01, 0.,
          9.46912229e-01, 0., 1.43795773e-01, 4.79319282e-02, 0. ]
      - [ 0., 0., 0., 0., 0., 0., 0., 0., 0., 4.62824702e-01,
          2.31412351e-01, 6.94237053e-01, 0., 0., 0., 0., 0.,
          4.62824702e-01, 4.66126800e-01, 7.92835727e-02, 2.37850726e-01,
          0., 0., 0., 0., 4.31271762e-01, 7.25153685e-01, 0., 0., 0., 0.,
          0., 0., 0., 0., 0., 1.16739877e-01, 4.45696354e-01,
          7.54135251e-01, 4.44804877e-01, 0., 0., 0., 0., 1.16739877e-01,
          4.02983516e-01, 2.23157823e-01, 4.02983516e-01, 4.02983516e-01,
          1.00645758e-01, 0., 3.52231026e-01, 4.02983516e-01,
          4.02983516e-01, 0., 0., 0., 0., 0., 0., 0., 0., 0.,
          5.59268713e-01, 5.56456566e-01, 5.88121653e-01, 2.32273061e-02,
          0., 0., 0., 0., 1.58982679e-01, 2.79007733e-01, 4.05125707e-01,
          4.05125707e-01, 1.32730395e-01, 1.88417852e-01, 2.91746676e-01,
          4.05125707e-01, 3.51234049e-01, 4.05125707e-01 ]
      - [ 0., 0., 0., 0., 0., 0., 0., 0., 0., 4.69830006e-01,
          3.35180968e-01, 4.69830006e-01, 4.69830006e-01, 0., 0., 0., 0.,
          4.69830006e-01, 4.49287325e-01, 2.31796443e-01, 4.49287325e-01,
          3.63692880e-01, 0., 0., 4.55353558e-02, 4.49287325e-01,
          4.49287325e-01, 0., 0., 0., 0., 0., 0., 0., 0., 0.,
          4.53756213e-01, 5.03435373e-01, 5.03435373e-01, 5.03435373e-01,
          5.28447777e-02, 0., 0., 0., 1.61069185e-01, 1.51833490e-01,
          3.73779029e-01, 3.73779029e-01, 3.73779029e-01, 6.18949942e-02,
          3.62100303e-01, 3.73779029e-01, 3.73779029e-01, 3.73779029e-01,
          0., 0., 0., 0., 0., 0., 0., 0., 0., 2.48672232e-01,
          4.80912507e-01, 4.80912507e-01, 4.80912507e-01, 4.80912507e-01,
          6.89762011e-02, 0., 0., 5.91083616e-02, 1.17020011e-01,
          4.68365014e-01, 4.68365014e-01, 1.25802085e-01, 4.68365014e-01,
          4.68365014e-01, 2.87811637e-01, 7.30552077e-02, 1.28995366e-02 ]
      - [ 0., 0., 0., 0., 0., 0., 0., 0., 0., 2.22447723e-01,
          5.52890062e-01, 5.54071844e-01, 1.09777771e-01, 2.03592610e-02,
          2.63193473e-02, 0., 1.10213920e-01, 5.54071844e-01,
          1.58801749e-01, 2.33183116e-01, 4.76168722e-01, 3.04541923e-02,
          4.83199842e-02, 7.37740621e-02, 4.76168722e-01, 4.76168722e-01,
          4.76168722e-01, 0., 0., 0., 0., 0., 0., 0., 0., 0.,
          1.27252731e-02, 5.98517537e-01, 5.98517537e-01, 4.37516943e-02,
          3.16266686e-01, 4.09467787e-01, 2.54967879e-03, 1.48674538e-02,
          8.70931000e-02, 1.02025764e-02, 2.70165086e-01, 4.45412010e-01,
          1.53926844e-02, 4.27158237e-01, 4.45412010e-01, 4.45412010e-01,
          3.46716106e-01, 1.56105265e-01, 0., 0., 0., 0., 0., 0., 0., 0.,
          0., 0., 4.98327583e-01, 4.98327583e-01, 1.40654696e-02,
          4.98327583e-01, 4.98327583e-01, 3.87764610e-02, 0., 0., 0.,
          2.32969522e-01, 4.84593868e-01, 1.64566785e-02, 4.84593868e-01,
          4.84593868e-01, 4.84593868e-01, 3.59087549e-02, 0. ]
      - [ 5.20588696e-01, 5.20588696e-01, 4.44136411e-01, 0.,
          1.57514550e-02, 1.56218439e-01, 3.25510561e-01, 2.14631289e-01,
          2.80789405e-01, 4.09227133e-01, 4.09227133e-01, 3.88910025e-01,
          0., 1.70743354e-02, 2.54616261e-01, 4.09227133e-01,
          4.09227133e-01, 3.31168354e-01, 3.94357085e-01, 3.94357085e-01,
          2.50909030e-01, 0., 0., 3.94357085e-01, 3.94357085e-01,
          3.94357085e-01, 3.94357085e-01, 4.39602852e-01, 4.39602852e-01,
          1.95358336e-01, 4.39602852e-01, 4.39602852e-01, 2.02270180e-01,
          2.74605274e-01, 1.28118798e-01, 2.27388754e-01, 3.47959012e-01,
          3.47959012e-01, 3.47959012e-01, 3.47959012e-01, 3.47959012e-01,
          2.28749096e-01, 3.47959012e-01, 3.10916543e-01, 3.47959012e-01,
          1.95663050e-01, 4.49954093e-01, 4.49954093e-01, 8.98844078e-02,
          7.73672238e-02, 4.49954093e-01, 4.49954093e-01, 3.01389426e-01,
          2.06122413e-01, 5.34161702e-02, 6.13403544e-02, 1.09941855e-01,
          6.91053569e-01, 6.91053569e-01, 1.27361089e-01, 2.89797597e-02,
          1.90868769e-02, 4.31657992e-02, 7.06118569e-02, 1.36224806e-01,
          5.16785562e-01, 5.16785562e-01, 5.16785562e-01, 1.88669503e-01,
          1.95948154e-01, 8.51014778e-02, 2.98092872e-01, 2.99080387e-02,
          9.13865566e-02, 4.07814950e-01, 4.07814950e-01, 4.07814950e-01,
          4.07814950e-01, 4.07814950e-01, 3.92332405e-01, 3.44987921e-02 ]
      - [ 4.30604666e-01, 4.30604666e-01, 4.02157605e-01, 8.14006776e-02,
          0., 3.24717984e-02, 2.90871143e-01, 4.30604666e-01,
          4.30604666e-01, 7.04162300e-01, 2.83532590e-02, 4.21956554e-03,
          0., 0., 0., 1.31457010e-02, 1.69463512e-02, 7.04162300e-01,
          6.88868940e-01, 0., 0., 0., 0., 0., 7.81237409e-02,
          1.94779307e-01, 6.88868940e-01, 3.87681693e-01, 3.87681693e-01,
          3.87681693e-01, 3.87681693e-01, 3.87681693e-01, 2.78898329e-01,
          1.04225442e-01, 7.54801035e-02, 3.87681693e-01, 4.96679932e-01,
          3.65367122e-02, 8.03410858e-02, 3.01615685e-01, 4.96679932e-01,
          3.92817527e-01, 4.27891202e-02, 8.26794468e-03, 4.96679932e-01,
          4.78110284e-01, 8.40805762e-04, 9.30539798e-03, 5.23592904e-03,
          4.78110284e-01, 4.78110284e-01, 1.75010964e-01, 2.23882377e-01,
          4.78110284e-01, 0., 1.54321715e-01, 4.80431169e-01,
          4.80431169e-01, 4.80431169e-01, 4.80431169e-01, 2.18985111e-01,
          1.32392608e-02, 0., 7.24874213e-02, 5.89452609e-02,
          5.01791775e-01, 3.93838406e-01, 5.01791775e-01, 5.01791775e-01,
          2.30015829e-01, 1.01305552e-01, 1.12230353e-01, 6.40979186e-02,
          2.21100487e-02, 2.36713663e-01, 1.28218919e-01, 4.81797129e-01,
          4.81797129e-01, 4.81797129e-01, 3.92193288e-01, 2.60607064e-01 ]
      - [ 4.62273449e-01, 4.62273449e-01, 3.97448689e-02, 0., 0., 0.,
          3.72848213e-01, 4.62273449e-01, 4.62273449e-01, 5.75551629e-01,
          5.19331455e-01, 9.87560023e-03, 0., 0., 0., 1.87401101e-01,
          2.45310128e-01, 5.45796931e-01, 4.46203768e-01, 4.46203768e-01,
          3.34848504e-04, 0., 0., 7.33724050e-03, 4.46203768e-01,
          4.46203768e-01, 4.46203768e-01, 3.94687831e-01, 3.94687831e-01,
          3.94687831e-01, 3.92956406e-01, 3.94687831e-01, 1.80457413e-01,
          1.93446174e-01, 2.47234911e-01, 2.95663923e-01, 4.35019344e-01,
          4.35019344e-01, 3.28541249e-01, 2.87456363e-01, 4.35019344e-01,
          4.35019344e-01, 5.65231964e-02, 6.96559474e-02, 2.00174421e-01,
          4.33183163e-01, 4.33183163e-01, 2.64772594e-01, 2.30791852e-01,
          2.06437156e-01, 4.33183163e-01, 4.33183163e-01, 2.49364272e-01,
          1.30054250e-01, 0., 1.25168622e-01, 2.74801582e-01,
          4.52082634e-01, 7.12338865e-01, 4.35776263e-01, 0., 0., 0.,
          5.76578826e-02, 4.44709778e-01, 4.44709778e-01, 4.44709778e-01,
          4.44709778e-01, 4.44709778e-01, 5.83037697e-02, 0., 0.,
          2.76586246e-02, 4.24127460e-01, 2.96248168e-01, 2.75414228e-01,
          4.65771168e-01, 4.65771168e-01, 4.65771168e-01, 1.59514286e-02,
          0. ]
      - [ 5.52323401e-01, 5.52323401e-01, 4.48220670e-02, 1.03943143e-02,
          0., 5.52323401e-01, 2.71037757e-01, 3.79679538e-02,
          4.77597602e-02, 4.36666459e-01, 4.36666459e-01, 9.88459140e-02,
          6.55438798e-03, 0., 4.36666459e-01, 4.36666459e-01,
          2.64747620e-01, 3.91181469e-01, 4.07326669e-01, 4.07326669e-01,
          4.07326669e-01, 4.77114576e-04, 0., 2.09939331e-02,
          4.07326669e-01, 4.07326669e-01, 4.07326669e-01, 3.91304106e-01,
          3.91304106e-01, 3.21997970e-01, 3.91304106e-01, 1.49273813e-01,
          3.91304106e-01, 3.91304106e-01, 2.13419557e-01, 2.42864221e-01,
          4.75571215e-01, 1.41688570e-01, 7.48548955e-02, 1.07389823e-01,
          4.75571215e-01, 4.75571215e-01, 2.26231247e-01, 4.67537493e-02,
          4.75571215e-01, 3.53582233e-01, 3.53582233e-01, 3.53582233e-01,
          2.44804174e-01, 2.66337007e-01, 3.45075697e-01, 3.53582233e-01,
          3.48458916e-01, 3.53582233e-01, 2.03551486e-01, 1.72083512e-01,
          4.74828720e-01, 4.74828720e-01, 4.74828720e-01, 4.74828720e-01,
          5.75422272e-02, 6.50068671e-02, 1.21758312e-01, 4.17693555e-01,
          8.73658285e-02, 2.57134646e-01, 3.18940341e-01, 5.59739828e-01,
          5.59739828e-01, 1.63118076e-02, 1.21557740e-02, 1.32051110e-01,
          9.33816358e-02, 1.54714420e-01, 4.37484026e-01, 4.37484026e-01,
          4.37484026e-01, 4.37484026e-01, 4.37484026e-01, 4.40979600e-02,
          6.37757555e-02 ]
      - [ 6.60787642e-01, 1.18783288e-01, 3.24383885e-01, 2.80757621e-02,
          0., 0., 0., 0., 6.60787642e-01, 7.02628255e-01, 7.49220401e-02,
          0., 0., 0., 0., 0., 0., 7.02628255e-01, 4.91057307e-01,
          4.91057307e-01, 0., 0., 0., 3.94637994e-02, 4.43931341e-01,
          2.70279974e-01, 4.91057307e-01, 4.67174202e-01, 6.30963743e-02,
          3.44013900e-01, 4.67174202e-01, 4.67174202e-01, 0., 0., 0.,
          4.67174202e-01, 5.08015692e-01, 2.00565848e-02, 1.98903866e-02,
          4.60122228e-01, 5.08015692e-01, 7.38827735e-02, 3.98458987e-02,
          3.36138904e-02, 5.08015692e-01, 4.04599994e-01, 3.98065835e-01,
          0., 5.56279905e-02, 4.04599994e-01, 4.04599994e-01,
          4.04599994e-01, 1.26100689e-01, 4.04599994e-01, 0.,
          9.47051158e-05, 1.68778691e-02, 7.04514921e-01, 7.04514921e-01,
          0., 0., 0., 0., 0., 0., 1.10144671e-02, 5.23478627e-01,
          8.42572808e-01, 8.17218497e-02, 2.20649987e-02, 1.86139736e-02,
